digraph Tree {
node [shape=box, style="filled, rounded", color="black", fontname=helvetica] ;
edge [fontname=helvetica] ;
0 [label="NumOfProducts <= 2.5\ngini = 0.32\nsamples = 4726\nvalue = [5982, 1518]\nclass = 0", fillcolor="#eca16b"] ;
1 [label="Gender_cat <= 0.5\ngini = 0.3\nsamples = 4575\nvalue = [5944, 1315]\nclass = 0", fillcolor="#eb9d65"] ;
0 -> 1 [labeldistance=2.5, labelangle=45, headlabel="True"] ;
2 [label="IsActiveMember <= 0.5\ngini = 0.34\nsamples = 2088\nvalue = [2595, 731]\nclass = 0", fillcolor="#eca471"] ;
1 -> 2 ;
3 [label="Tenure <= 9.5\ngini = 0.41\nsamples = 1011\nvalue = [1149, 462]\nclass = 0", fillcolor="#efb489"] ;
2 -> 3 ;
4 [label="Age <= 42.5\ngini = 0.41\nsamples = 965\nvalue = [1093, 446]\nclass = 0", fillcolor="#f0b48a"] ;
3 -> 4 ;
5 [label="EstimatedSalary <= 358.0\ngini = 0.28\nsamples = 707\nvalue = [943, 188]\nclass = 0", fillcolor="#ea9a60"] ;
4 -> 5 ;
6 [label="gini = 0.0\nsamples = 1\nvalue = [0, 2]\nclass = 1", fillcolor="#399de5"] ;
5 -> 6 ;
7 [label="NumOfProducts <= 1.5\ngini = 0.28\nsamples = 706\nvalue = [943, 186]\nclass = 0", fillcolor="#ea9a60"] ;
5 -> 7 ;
8 [label="CreditScore <= 508.5\ngini = 0.39\nsamples = 342\nvalue = [403, 147]\nclass = 0", fillcolor="#eeaf81"] ;
7 -> 8 ;
9 [label="Balance <= 198225.61\ngini = 0.13\nsamples = 28\nvalue = [40, 3]\nclass = 0", fillcolor="#e78a48"] ;
8 -> 9 ;
10 [label="EstimatedSalary <= 55092.41\ngini = 0.05\nsamples = 27\nvalue = [40, 1]\nclass = 0", fillcolor="#e6843e"] ;
9 -> 10 ;
11 [label="Balance <= 156233.66\ngini = 0.17\nsamples = 7\nvalue = [10, 1]\nclass = 0", fillcolor="#e88e4d"] ;
10 -> 11 ;
12 [label="gini = 0.0\nsamples = 5\nvalue = [8, 0]\nclass = 0", fillcolor="#e58139"] ;
11 -> 12 ;
13 [label="EstimatedSalary <= 45952.6\ngini = 0.44\nsamples = 2\nvalue = [2, 1]\nclass = 0", fillcolor="#f2c09c"] ;
11 -> 13 ;
14 [label="gini = 0.0\nsamples = 1\nvalue = [2, 0]\nclass = 0", fillcolor="#e58139"] ;
13 -> 14 ;
15 [label="gini = 0.0\nsamples = 1\nvalue = [0, 1]\nclass = 1", fillcolor="#399de5"] ;
13 -> 15 ;
16 [label="gini = 0.0\nsamples = 20\nvalue = [30, 0]\nclass = 0", fillcolor="#e58139"] ;
10 -> 16 ;
17 [label="gini = 0.0\nsamples = 1\nvalue = [0, 2]\nclass = 1", fillcolor="#399de5"] ;
9 -> 17 ;
18 [label="EstimatedSalary <= 4927.82\ngini = 0.41\nsamples = 314\nvalue = [363, 144]\nclass = 0", fillcolor="#efb388"] ;
8 -> 18 ;
19 [label="gini = 0.0\nsamples = 12\nvalue = [15, 0]\nclass = 0", fillcolor="#e58139"] ;
18 -> 19 ;
20 [label="Age <= 38.5\ngini = 0.41\nsamples = 302\nvalue = [348, 144]\nclass = 0", fillcolor="#f0b58b"] ;
18 -> 20 ;
21 [label="Geography_cat <= 1.5\ngini = 0.36\nsamples = 218\nvalue = [268, 82]\nclass = 0", fillcolor="#eda876"] ;
20 -> 21 ;
22 [label="Balance <= 83097.85\ngini = 0.27\nsamples = 151\nvalue = [202, 39]\nclass = 0", fillcolor="#ea995f"] ;
21 -> 22 ;
23 [label="Tenure <= 7.5\ngini = 0.44\nsamples = 53\nvalue = [59, 29]\nclass = 0", fillcolor="#f2bf9a"] ;
22 -> 23 ;
24 [label="EstimatedSalary <= 190799.43\ngini = 0.4\nsamples = 45\nvalue = [54, 21]\nclass = 0", fillcolor="#efb286"] ;
23 -> 24 ;
25 [label="CreditScore <= 686.0\ngini = 0.39\nsamples = 44\nvalue = [54, 19]\nclass = 0", fillcolor="#eead7f"] ;
24 -> 25 ;
26 [label="Tenure <= 0.5\ngini = 0.21\nsamples = 29\nvalue = [43, 6]\nclass = 0", fillcolor="#e99355"] ;
25 -> 26 ;
27 [label="Geography_cat <= 0.5\ngini = 0.44\nsamples = 2\nvalue = [1, 2]\nclass = 1", fillcolor="#9ccef2"] ;
26 -> 27 ;
28 [label="gini = 0.0\nsamples = 1\nvalue = [1, 0]\nclass = 0", fillcolor="#e58139"] ;
27 -> 28 ;
29 [label="gini = 0.0\nsamples = 1\nvalue = [0, 2]\nclass = 1", fillcolor="#399de5"] ;
27 -> 29 ;
30 [label="HasCrCard <= 0.5\ngini = 0.16\nsamples = 27\nvalue = [42, 4]\nclass = 0", fillcolor="#e78d4c"] ;
26 -> 30 ;
31 [label="Age <= 37.5\ngini = 0.38\nsamples = 6\nvalue = [6, 2]\nclass = 0", fillcolor="#eeab7b"] ;
30 -> 31 ;
32 [label="Tenure <= 4.5\ngini = 0.24\nsamples = 5\nvalue = [6, 1]\nclass = 0", fillcolor="#e9965a"] ;
31 -> 32 ;
33 [label="gini = 0.0\nsamples = 3\nvalue = [4, 0]\nclass = 0", fillcolor="#e58139"] ;
32 -> 33 ;
34 [label="CreditScore <= 614.5\ngini = 0.44\nsamples = 2\nvalue = [2, 1]\nclass = 0", fillcolor="#f2c09c"] ;
32 -> 34 ;
35 [label="gini = 0.0\nsamples = 1\nvalue = [2, 0]\nclass = 0", fillcolor="#e58139"] ;
34 -> 35 ;
36 [label="gini = 0.0\nsamples = 1\nvalue = [0, 1]\nclass = 1", fillcolor="#399de5"] ;
34 -> 36 ;
37 [label="gini = 0.0\nsamples = 1\nvalue = [0, 1]\nclass = 1", fillcolor="#399de5"] ;
31 -> 37 ;
38 [label="CreditScore <= 513.0\ngini = 0.1\nsamples = 21\nvalue = [36, 2]\nclass = 0", fillcolor="#e68844"] ;
30 -> 38 ;
39 [label="gini = 0.0\nsamples = 1\nvalue = [0, 1]\nclass = 1", fillcolor="#399de5"] ;
38 -> 39 ;
40 [label="Age <= 32.0\ngini = 0.05\nsamples = 20\nvalue = [36, 1]\nclass = 0", fillcolor="#e6843e"] ;
38 -> 40 ;
41 [label="gini = 0.0\nsamples = 8\nvalue = [17, 0]\nclass = 0", fillcolor="#e58139"] ;
40 -> 41 ;
42 [label="Age <= 33.5\ngini = 0.09\nsamples = 12\nvalue = [19, 1]\nclass = 0", fillcolor="#e68843"] ;
40 -> 42 ;
43 [label="EstimatedSalary <= 115813.71\ngini = 0.44\nsamples = 2\nvalue = [2, 1]\nclass = 0", fillcolor="#f2c09c"] ;
42 -> 43 ;
44 [label="gini = 0.0\nsamples = 1\nvalue = [0, 1]\nclass = 1", fillcolor="#399de5"] ;
43 -> 44 ;
45 [label="gini = 0.0\nsamples = 1\nvalue = [2, 0]\nclass = 0", fillcolor="#e58139"] ;
43 -> 45 ;
46 [label="gini = 0.0\nsamples = 10\nvalue = [17, 0]\nclass = 0", fillcolor="#e58139"] ;
42 -> 46 ;
47 [label="Tenure <= 5.5\ngini = 0.5\nsamples = 15\nvalue = [11, 13]\nclass = 1", fillcolor="#e1f0fb"] ;
25 -> 47 ;
48 [label="Age <= 31.5\ngini = 0.44\nsamples = 12\nvalue = [6, 12]\nclass = 1", fillcolor="#9ccef2"] ;
47 -> 48 ;
49 [label="gini = 0.0\nsamples = 3\nvalue = [0, 6]\nclass = 1", fillcolor="#399de5"] ;
48 -> 49 ;
50 [label="Balance <= 60218.98\ngini = 0.5\nsamples = 9\nvalue = [6, 6]\nclass = 0", fillcolor="#ffffff"] ;
48 -> 50 ;
51 [label="Geography_cat <= 0.5\ngini = 0.44\nsamples = 7\nvalue = [3, 6]\nclass = 1", fillcolor="#9ccef2"] ;
50 -> 51 ;
52 [label="Age <= 35.0\ngini = 0.5\nsamples = 5\nvalue = [3, 3]\nclass = 0", fillcolor="#ffffff"] ;
51 -> 52 ;
53 [label="Tenure <= 1.5\ngini = 0.48\nsamples = 4\nvalue = [3, 2]\nclass = 0", fillcolor="#f6d5bd"] ;
52 -> 53 ;
54 [label="gini = 0.0\nsamples = 2\nvalue = [2, 0]\nclass = 0", fillcolor="#e58139"] ;
53 -> 54 ;
55 [label="EstimatedSalary <= 116099.28\ngini = 0.44\nsamples = 2\nvalue = [1, 2]\nclass = 1", fillcolor="#9ccef2"] ;
53 -> 55 ;
56 [label="gini = 0.0\nsamples = 1\nvalue = [1, 0]\nclass = 0", fillcolor="#e58139"] ;
55 -> 56 ;
57 [label="gini = 0.0\nsamples = 1\nvalue = [0, 2]\nclass = 1", fillcolor="#399de5"] ;
55 -> 57 ;
58 [label="gini = 0.0\nsamples = 1\nvalue = [0, 1]\nclass = 1", fillcolor="#399de5"] ;
52 -> 58 ;
59 [label="gini = 0.0\nsamples = 2\nvalue = [0, 3]\nclass = 1", fillcolor="#399de5"] ;
51 -> 59 ;
60 [label="gini = 0.0\nsamples = 2\nvalue = [3, 0]\nclass = 0", fillcolor="#e58139"] ;
50 -> 60 ;
61 [label="CreditScore <= 697.5\ngini = 0.28\nsamples = 3\nvalue = [5, 1]\nclass = 0", fillcolor="#ea9a61"] ;
47 -> 61 ;
62 [label="gini = 0.0\nsamples = 1\nvalue = [0, 1]\nclass = 1", fillcolor="#399de5"] ;
61 -> 62 ;
63 [label="gini = 0.0\nsamples = 2\nvalue = [5, 0]\nclass = 0", fillcolor="#e58139"] ;
61 -> 63 ;
64 [label="gini = 0.0\nsamples = 1\nvalue = [0, 2]\nclass = 1", fillcolor="#399de5"] ;
24 -> 64 ;
65 [label="EstimatedSalary <= 153625.74\ngini = 0.47\nsamples = 8\nvalue = [5, 8]\nclass = 1", fillcolor="#b5daf5"] ;
23 -> 65 ;
66 [label="EstimatedSalary <= 89582.6\ngini = 0.22\nsamples = 5\nvalue = [1, 7]\nclass = 1", fillcolor="#55abe9"] ;
65 -> 66 ;
67 [label="EstimatedSalary <= 58241.86\ngini = 0.44\nsamples = 2\nvalue = [1, 2]\nclass = 1", fillcolor="#9ccef2"] ;
66 -> 67 ;
68 [label="gini = 0.0\nsamples = 1\nvalue = [0, 2]\nclass = 1", fillcolor="#399de5"] ;
67 -> 68 ;
69 [label="gini = 0.0\nsamples = 1\nvalue = [1, 0]\nclass = 0", fillcolor="#e58139"] ;
67 -> 69 ;
70 [label="gini = 0.0\nsamples = 3\nvalue = [0, 5]\nclass = 1", fillcolor="#399de5"] ;
66 -> 70 ;
71 [label="CreditScore <= 587.5\ngini = 0.32\nsamples = 3\nvalue = [4, 1]\nclass = 0", fillcolor="#eca06a"] ;
65 -> 71 ;
72 [label="gini = 0.0\nsamples = 1\nvalue = [0, 1]\nclass = 1", fillcolor="#399de5"] ;
71 -> 72 ;
73 [label="gini = 0.0\nsamples = 2\nvalue = [4, 0]\nclass = 0", fillcolor="#e58139"] ;
71 -> 73 ;
74 [label="Balance <= 175148.6\ngini = 0.12\nsamples = 98\nvalue = [143, 10]\nclass = 0", fillcolor="#e78a47"] ;
22 -> 74 ;
75 [label="CreditScore <= 718.5\ngini = 0.08\nsamples = 95\nvalue = [142, 6]\nclass = 0", fillcolor="#e68641"] ;
74 -> 75 ;
76 [label="Tenure <= 8.5\ngini = 0.05\nsamples = 75\nvalue = [114, 3]\nclass = 0", fillcolor="#e6843e"] ;
75 -> 76 ;
77 [label="Balance <= 173646.91\ngini = 0.02\nsamples = 66\nvalue = [105, 1]\nclass = 0", fillcolor="#e5823b"] ;
76 -> 77 ;
78 [label="gini = 0.0\nsamples = 63\nvalue = [103, 0]\nclass = 0", fillcolor="#e58139"] ;
77 -> 78 ;
79 [label="Age <= 27.5\ngini = 0.44\nsamples = 3\nvalue = [2, 1]\nclass = 0", fillcolor="#f2c09c"] ;
77 -> 79 ;
80 [label="gini = 0.0\nsamples = 1\nvalue = [0, 1]\nclass = 1", fillcolor="#399de5"] ;
79 -> 80 ;
81 [label="gini = 0.0\nsamples = 2\nvalue = [2, 0]\nclass = 0", fillcolor="#e58139"] ;
79 -> 81 ;
82 [label="Age <= 28.5\ngini = 0.3\nsamples = 9\nvalue = [9, 2]\nclass = 0", fillcolor="#eb9d65"] ;
76 -> 82 ;
83 [label="EstimatedSalary <= 99641.86\ngini = 0.44\nsamples = 2\nvalue = [1, 2]\nclass = 1", fillcolor="#9ccef2"] ;
82 -> 83 ;
84 [label="gini = 0.0\nsamples = 1\nvalue = [1, 0]\nclass = 0", fillcolor="#e58139"] ;
83 -> 84 ;
85 [label="gini = 0.0\nsamples = 1\nvalue = [0, 2]\nclass = 1", fillcolor="#399de5"] ;
83 -> 85 ;
86 [label="gini = 0.0\nsamples = 7\nvalue = [8, 0]\nclass = 0", fillcolor="#e58139"] ;
82 -> 86 ;
87 [label="EstimatedSalary <= 139226.91\ngini = 0.17\nsamples = 20\nvalue = [28, 3]\nclass = 0", fillcolor="#e88e4e"] ;
75 -> 87 ;
88 [label="Tenure <= 8.5\ngini = 0.08\nsamples = 15\nvalue = [22, 1]\nclass = 0", fillcolor="#e68742"] ;
87 -> 88 ;
89 [label="gini = 0.0\nsamples = 14\nvalue = [22, 0]\nclass = 0", fillcolor="#e58139"] ;
88 -> 89 ;
90 [label="gini = 0.0\nsamples = 1\nvalue = [0, 1]\nclass = 1", fillcolor="#399de5"] ;
88 -> 90 ;
91 [label="Age <= 35.0\ngini = 0.38\nsamples = 5\nvalue = [6, 2]\nclass = 0", fillcolor="#eeab7b"] ;
87 -> 91 ;
92 [label="gini = 0.0\nsamples = 1\nvalue = [0, 2]\nclass = 1", fillcolor="#399de5"] ;
91 -> 92 ;
93 [label="gini = 0.0\nsamples = 4\nvalue = [6, 0]\nclass = 0", fillcolor="#e58139"] ;
91 -> 93 ;
94 [label="HasCrCard <= 0.5\ngini = 0.32\nsamples = 3\nvalue = [1, 4]\nclass = 1", fillcolor="#6ab6ec"] ;
74 -> 94 ;
95 [label="gini = 0.0\nsamples = 1\nvalue = [1, 0]\nclass = 0", fillcolor="#e58139"] ;
94 -> 95 ;
96 [label="gini = 0.0\nsamples = 2\nvalue = [0, 4]\nclass = 1", fillcolor="#399de5"] ;
94 -> 96 ;
97 [label="EstimatedSalary <= 143192.03\ngini = 0.48\nsamples = 67\nvalue = [66, 43]\nclass = 0", fillcolor="#f6d3ba"] ;
21 -> 97 ;
98 [label="Age <= 22.5\ngini = 0.49\nsamples = 42\nvalue = [29, 36]\nclass = 1", fillcolor="#d9ecfa"] ;
97 -> 98 ;
99 [label="Tenure <= 3.5\ngini = 0.32\nsamples = 4\nvalue = [1, 4]\nclass = 1", fillcolor="#6ab6ec"] ;
98 -> 99 ;
100 [label="EstimatedSalary <= 71173.82\ngini = 0.5\nsamples = 2\nvalue = [1, 1]\nclass = 0", fillcolor="#ffffff"] ;
99 -> 100 ;
101 [label="gini = 0.0\nsamples = 1\nvalue = [1, 0]\nclass = 0", fillcolor="#e58139"] ;
100 -> 101 ;
102 [label="gini = 0.0\nsamples = 1\nvalue = [0, 1]\nclass = 1", fillcolor="#399de5"] ;
100 -> 102 ;
103 [label="gini = 0.0\nsamples = 2\nvalue = [0, 3]\nclass = 1", fillcolor="#399de5"] ;
99 -> 103 ;
104 [label="CreditScore <= 829.0\ngini = 0.5\nsamples = 38\nvalue = [28, 32]\nclass = 1", fillcolor="#e6f3fc"] ;
98 -> 104 ;
105 [label="Balance <= 151311.89\ngini = 0.49\nsamples = 37\nvalue = [23, 32]\nclass = 1", fillcolor="#c7e3f8"] ;
104 -> 105 ;
106 [label="CreditScore <= 735.5\ngini = 0.47\nsamples = 34\nvalue = [20, 32]\nclass = 1", fillcolor="#b5daf5"] ;
105 -> 106 ;
107 [label="EstimatedSalary <= 11182.62\ngini = 0.5\nsamples = 28\nvalue = [20, 24]\nclass = 1", fillcolor="#deeffb"] ;
106 -> 107 ;
108 [label="gini = 0.0\nsamples = 3\nvalue = [0, 6]\nclass = 1", fillcolor="#399de5"] ;
107 -> 108 ;
109 [label="CreditScore <= 533.5\ngini = 0.5\nsamples = 25\nvalue = [20, 18]\nclass = 0", fillcolor="#fcf2eb"] ;
107 -> 109 ;
110 [label="gini = 0.0\nsamples = 2\nvalue = [0, 6]\nclass = 1", fillcolor="#399de5"] ;
109 -> 110 ;
111 [label="HasCrCard <= 0.5\ngini = 0.47\nsamples = 23\nvalue = [20, 12]\nclass = 0", fillcolor="#f5cdb0"] ;
109 -> 111 ;
112 [label="EstimatedSalary <= 70444.06\ngini = 0.36\nsamples = 9\nvalue = [3, 10]\nclass = 1", fillcolor="#74baed"] ;
111 -> 112 ;
113 [label="gini = 0.0\nsamples = 5\nvalue = [0, 9]\nclass = 1", fillcolor="#399de5"] ;
112 -> 113 ;
114 [label="Balance <= 113504.84\ngini = 0.38\nsamples = 4\nvalue = [3, 1]\nclass = 0", fillcolor="#eeab7b"] ;
112 -> 114 ;
115 [label="gini = 0.0\nsamples = 1\nvalue = [0, 1]\nclass = 1", fillcolor="#399de5"] ;
114 -> 115 ;
116 [label="gini = 0.0\nsamples = 3\nvalue = [3, 0]\nclass = 0", fillcolor="#e58139"] ;
114 -> 116 ;
117 [label="Balance <= 80673.33\ngini = 0.19\nsamples = 14\nvalue = [17, 2]\nclass = 0", fillcolor="#e89050"] ;
111 -> 117 ;
118 [label="Balance <= 75665.78\ngini = 0.5\nsamples = 2\nvalue = [1, 1]\nclass = 0", fillcolor="#ffffff"] ;
117 -> 118 ;
119 [label="gini = 0.0\nsamples = 1\nvalue = [1, 0]\nclass = 0", fillcolor="#e58139"] ;
118 -> 119 ;
120 [label="gini = 0.0\nsamples = 1\nvalue = [0, 1]\nclass = 1", fillcolor="#399de5"] ;
118 -> 120 ;
121 [label="Age <= 36.0\ngini = 0.11\nsamples = 12\nvalue = [16, 1]\nclass = 0", fillcolor="#e78945"] ;
117 -> 121 ;
122 [label="gini = 0.0\nsamples = 9\nvalue = [12, 0]\nclass = 0", fillcolor="#e58139"] ;
121 -> 122 ;
123 [label="Tenure <= 3.0\ngini = 0.32\nsamples = 3\nvalue = [4, 1]\nclass = 0", fillcolor="#eca06a"] ;
121 -> 123 ;
124 [label="gini = 0.0\nsamples = 1\nvalue = [0, 1]\nclass = 1", fillcolor="#399de5"] ;
123 -> 124 ;
125 [label="gini = 0.0\nsamples = 2\nvalue = [4, 0]\nclass = 0", fillcolor="#e58139"] ;
123 -> 125 ;
126 [label="gini = 0.0\nsamples = 6\nvalue = [0, 8]\nclass = 1", fillcolor="#399de5"] ;
106 -> 126 ;
127 [label="gini = 0.0\nsamples = 3\nvalue = [3, 0]\nclass = 0", fillcolor="#e58139"] ;
105 -> 127 ;
128 [label="gini = 0.0\nsamples = 1\nvalue = [5, 0]\nclass = 0", fillcolor="#e58139"] ;
104 -> 128 ;
129 [label="CreditScore <= 539.0\ngini = 0.27\nsamples = 25\nvalue = [37, 7]\nclass = 0", fillcolor="#ea995e"] ;
97 -> 129 ;
130 [label="gini = 0.0\nsamples = 1\nvalue = [0, 2]\nclass = 1", fillcolor="#399de5"] ;
129 -> 130 ;
131 [label="Balance <= 116867.3\ngini = 0.21\nsamples = 24\nvalue = [37, 5]\nclass = 0", fillcolor="#e99254"] ;
129 -> 131 ;
132 [label="Age <= 26.0\ngini = 0.35\nsamples = 14\nvalue = [17, 5]\nclass = 0", fillcolor="#eda673"] ;
131 -> 132 ;
133 [label="gini = 0.0\nsamples = 1\nvalue = [0, 1]\nclass = 1", fillcolor="#399de5"] ;
132 -> 133 ;
134 [label="Balance <= 101520.08\ngini = 0.31\nsamples = 13\nvalue = [17, 4]\nclass = 0", fillcolor="#eb9f68"] ;
132 -> 134 ;
135 [label="gini = 0.0\nsamples = 7\nvalue = [12, 0]\nclass = 0", fillcolor="#e58139"] ;
134 -> 135 ;
136 [label="EstimatedSalary <= 191143.51\ngini = 0.49\nsamples = 6\nvalue = [5, 4]\nclass = 0", fillcolor="#fae6d7"] ;
134 -> 136 ;
137 [label="EstimatedSalary <= 174972.37\ngini = 0.32\nsamples = 4\nvalue = [1, 4]\nclass = 1", fillcolor="#6ab6ec"] ;
136 -> 137 ;
138 [label="gini = 0.0\nsamples = 1\nvalue = [1, 0]\nclass = 0", fillcolor="#e58139"] ;
137 -> 138 ;
139 [label="gini = 0.0\nsamples = 3\nvalue = [0, 4]\nclass = 1", fillcolor="#399de5"] ;
137 -> 139 ;
140 [label="gini = 0.0\nsamples = 2\nvalue = [4, 0]\nclass = 0", fillcolor="#e58139"] ;
136 -> 140 ;
141 [label="gini = 0.0\nsamples = 10\nvalue = [20, 0]\nclass = 0", fillcolor="#e58139"] ;
131 -> 141 ;
142 [label="HasCrCard <= 0.5\ngini = 0.49\nsamples = 84\nvalue = [80, 62]\nclass = 0", fillcolor="#f9e3d2"] ;
20 -> 142 ;
143 [label="CreditScore <= 771.0\ngini = 0.47\nsamples = 18\nvalue = [12, 19]\nclass = 1", fillcolor="#b6dbf5"] ;
142 -> 143 ;
144 [label="EstimatedSalary <= 45367.06\ngini = 0.45\nsamples = 17\nvalue = [10, 19]\nclass = 1", fillcolor="#a1d1f3"] ;
143 -> 144 ;
145 [label="Tenure <= 3.0\ngini = 0.38\nsamples = 5\nvalue = [6, 2]\nclass = 0", fillcolor="#eeab7b"] ;
144 -> 145 ;
146 [label="gini = 0.0\nsamples = 1\nvalue = [0, 1]\nclass = 1", fillcolor="#399de5"] ;
145 -> 146 ;
147 [label="Balance <= 172797.88\ngini = 0.24\nsamples = 4\nvalue = [6, 1]\nclass = 0", fillcolor="#e9965a"] ;
145 -> 147 ;
148 [label="gini = 0.0\nsamples = 3\nvalue = [6, 0]\nclass = 0", fillcolor="#e58139"] ;
147 -> 148 ;
149 [label="gini = 0.0\nsamples = 1\nvalue = [0, 1]\nclass = 1", fillcolor="#399de5"] ;
147 -> 149 ;
150 [label="EstimatedSalary <= 96360.81\ngini = 0.31\nsamples = 12\nvalue = [4, 17]\nclass = 1", fillcolor="#68b4eb"] ;
144 -> 150 ;
151 [label="EstimatedSalary <= 84609.54\ngini = 0.44\nsamples = 4\nvalue = [3, 6]\nclass = 1", fillcolor="#9ccef2"] ;
150 -> 151 ;
152 [label="gini = 0.0\nsamples = 2\nvalue = [0, 6]\nclass = 1", fillcolor="#399de5"] ;
151 -> 152 ;
153 [label="gini = 0.0\nsamples = 2\nvalue = [3, 0]\nclass = 0", fillcolor="#e58139"] ;
151 -> 153 ;
154 [label="CreditScore <= 671.5\ngini = 0.15\nsamples = 8\nvalue = [1, 11]\nclass = 1", fillcolor="#4ba6e7"] ;
150 -> 154 ;
155 [label="gini = 0.0\nsamples = 5\nvalue = [0, 8]\nclass = 1", fillcolor="#399de5"] ;
154 -> 155 ;
156 [label="EstimatedSalary <= 169374.82\ngini = 0.38\nsamples = 3\nvalue = [1, 3]\nclass = 1", fillcolor="#7bbeee"] ;
154 -> 156 ;
157 [label="gini = 0.0\nsamples = 1\nvalue = [0, 2]\nclass = 1", fillcolor="#399de5"] ;
156 -> 157 ;
158 [label="Balance <= 105909.53\ngini = 0.5\nsamples = 2\nvalue = [1, 1]\nclass = 0", fillcolor="#ffffff"] ;
156 -> 158 ;
159 [label="gini = 0.0\nsamples = 1\nvalue = [0, 1]\nclass = 1", fillcolor="#399de5"] ;
158 -> 159 ;
160 [label="gini = 0.0\nsamples = 1\nvalue = [1, 0]\nclass = 0", fillcolor="#e58139"] ;
158 -> 160 ;
161 [label="gini = 0.0\nsamples = 1\nvalue = [2, 0]\nclass = 0", fillcolor="#e58139"] ;
143 -> 161 ;
162 [label="EstimatedSalary <= 33368.16\ngini = 0.47\nsamples = 66\nvalue = [68, 43]\nclass = 0", fillcolor="#f5d1b6"] ;
142 -> 162 ;
163 [label="EstimatedSalary <= 23849.58\ngini = 0.28\nsamples = 10\nvalue = [3, 15]\nclass = 1", fillcolor="#61b1ea"] ;
162 -> 163 ;
164 [label="CreditScore <= 736.0\ngini = 0.49\nsamples = 5\nvalue = [3, 4]\nclass = 1", fillcolor="#cee6f8"] ;
163 -> 164 ;
165 [label="gini = 0.0\nsamples = 2\nvalue = [3, 0]\nclass = 0", fillcolor="#e58139"] ;
164 -> 165 ;
166 [label="gini = 0.0\nsamples = 3\nvalue = [0, 4]\nclass = 1", fillcolor="#399de5"] ;
164 -> 166 ;
167 [label="gini = 0.0\nsamples = 5\nvalue = [0, 11]\nclass = 1", fillcolor="#399de5"] ;
163 -> 167 ;
168 [label="CreditScore <= 705.5\ngini = 0.42\nsamples = 56\nvalue = [65, 28]\nclass = 0", fillcolor="#f0b78e"] ;
162 -> 168 ;
169 [label="Age <= 39.5\ngini = 0.46\nsamples = 44\nvalue = [47, 27]\nclass = 0", fillcolor="#f4c9ab"] ;
168 -> 169 ;
170 [label="EstimatedSalary <= 92794.29\ngini = 0.43\nsamples = 11\nvalue = [6, 13]\nclass = 1", fillcolor="#94caf1"] ;
169 -> 170 ;
171 [label="gini = 0.0\nsamples = 1\nvalue = [1, 0]\nclass = 0", fillcolor="#e58139"] ;
170 -> 171 ;
172 [label="CreditScore <= 633.0\ngini = 0.4\nsamples = 10\nvalue = [5, 13]\nclass = 1", fillcolor="#85c3ef"] ;
170 -> 172 ;
173 [label="gini = 0.0\nsamples = 4\nvalue = [0, 7]\nclass = 1", fillcolor="#399de5"] ;
172 -> 173 ;
174 [label="Geography_cat <= 1.0\ngini = 0.5\nsamples = 6\nvalue = [5, 6]\nclass = 1", fillcolor="#deeffb"] ;
172 -> 174 ;
175 [label="gini = 0.0\nsamples = 3\nvalue = [5, 0]\nclass = 0", fillcolor="#e58139"] ;
174 -> 175 ;
176 [label="gini = 0.0\nsamples = 3\nvalue = [0, 6]\nclass = 1", fillcolor="#399de5"] ;
174 -> 176 ;
177 [label="EstimatedSalary <= 114427.62\ngini = 0.38\nsamples = 33\nvalue = [41, 14]\nclass = 0", fillcolor="#eeac7d"] ;
169 -> 177 ;
178 [label="CreditScore <= 674.5\ngini = 0.48\nsamples = 15\nvalue = [16, 11]\nclass = 0", fillcolor="#f7d8c1"] ;
177 -> 178 ;
179 [label="CreditScore <= 514.0\ngini = 0.44\nsamples = 13\nvalue = [16, 8]\nclass = 0", fillcolor="#f2c09c"] ;
178 -> 179 ;
180 [label="gini = 0.0\nsamples = 1\nvalue = [0, 2]\nclass = 1", fillcolor="#399de5"] ;
179 -> 180 ;
181 [label="Balance <= 55328.31\ngini = 0.4\nsamples = 12\nvalue = [16, 6]\nclass = 0", fillcolor="#efb083"] ;
179 -> 181 ;
182 [label="Tenure <= 4.5\ngini = 0.28\nsamples = 3\nvalue = [1, 5]\nclass = 1", fillcolor="#61b1ea"] ;
181 -> 182 ;
183 [label="gini = 0.0\nsamples = 1\nvalue = [0, 4]\nclass = 1", fillcolor="#399de5"] ;
182 -> 183 ;
184 [label="CreditScore <= 595.5\ngini = 0.5\nsamples = 2\nvalue = [1, 1]\nclass = 0", fillcolor="#ffffff"] ;
182 -> 184 ;
185 [label="gini = 0.0\nsamples = 1\nvalue = [1, 0]\nclass = 0", fillcolor="#e58139"] ;
184 -> 185 ;
186 [label="gini = 0.0\nsamples = 1\nvalue = [0, 1]\nclass = 1", fillcolor="#399de5"] ;
184 -> 186 ;
187 [label="Balance <= 91409.18\ngini = 0.12\nsamples = 9\nvalue = [15, 1]\nclass = 0", fillcolor="#e78946"] ;
181 -> 187 ;
188 [label="Age <= 41.5\ngini = 0.38\nsamples = 2\nvalue = [3, 1]\nclass = 0", fillcolor="#eeab7b"] ;
187 -> 188 ;
189 [label="gini = 0.0\nsamples = 1\nvalue = [0, 1]\nclass = 1", fillcolor="#399de5"] ;
188 -> 189 ;
190 [label="gini = 0.0\nsamples = 1\nvalue = [3, 0]\nclass = 0", fillcolor="#e58139"] ;
188 -> 190 ;
191 [label="gini = 0.0\nsamples = 7\nvalue = [12, 0]\nclass = 0", fillcolor="#e58139"] ;
187 -> 191 ;
192 [label="gini = 0.0\nsamples = 2\nvalue = [0, 3]\nclass = 1", fillcolor="#399de5"] ;
178 -> 192 ;
193 [label="Geography_cat <= 1.5\ngini = 0.19\nsamples = 18\nvalue = [25, 3]\nclass = 0", fillcolor="#e89051"] ;
177 -> 193 ;
194 [label="gini = 0.0\nsamples = 9\nvalue = [14, 0]\nclass = 0", fillcolor="#e58139"] ;
193 -> 194 ;
195 [label="EstimatedSalary <= 157442.3\ngini = 0.34\nsamples = 9\nvalue = [11, 3]\nclass = 0", fillcolor="#eca36f"] ;
193 -> 195 ;
196 [label="EstimatedSalary <= 153912.85\ngini = 0.5\nsamples = 5\nvalue = [3, 3]\nclass = 0", fillcolor="#ffffff"] ;
195 -> 196 ;
197 [label="CreditScore <= 647.0\ngini = 0.38\nsamples = 4\nvalue = [3, 1]\nclass = 0", fillcolor="#eeab7b"] ;
196 -> 197 ;
198 [label="EstimatedSalary <= 124576.5\ngini = 0.5\nsamples = 2\nvalue = [1, 1]\nclass = 0", fillcolor="#ffffff"] ;
197 -> 198 ;
199 [label="gini = 0.0\nsamples = 1\nvalue = [1, 0]\nclass = 0", fillcolor="#e58139"] ;
198 -> 199 ;
200 [label="gini = 0.0\nsamples = 1\nvalue = [0, 1]\nclass = 1", fillcolor="#399de5"] ;
198 -> 200 ;
201 [label="gini = 0.0\nsamples = 2\nvalue = [2, 0]\nclass = 0", fillcolor="#e58139"] ;
197 -> 201 ;
202 [label="gini = 0.0\nsamples = 1\nvalue = [0, 2]\nclass = 1", fillcolor="#399de5"] ;
196 -> 202 ;
203 [label="gini = 0.0\nsamples = 4\nvalue = [8, 0]\nclass = 0", fillcolor="#e58139"] ;
195 -> 203 ;
204 [label="Balance <= 98387.54\ngini = 0.1\nsamples = 12\nvalue = [18, 1]\nclass = 0", fillcolor="#e68844"] ;
168 -> 204 ;
205 [label="Geography_cat <= 0.5\ngini = 0.44\nsamples = 3\nvalue = [2, 1]\nclass = 0", fillcolor="#f2c09c"] ;
204 -> 205 ;
206 [label="gini = 0.0\nsamples = 1\nvalue = [0, 1]\nclass = 1", fillcolor="#399de5"] ;
205 -> 206 ;
207 [label="gini = 0.0\nsamples = 2\nvalue = [2, 0]\nclass = 0", fillcolor="#e58139"] ;
205 -> 207 ;
208 [label="gini = 0.0\nsamples = 9\nvalue = [16, 0]\nclass = 0", fillcolor="#e58139"] ;
204 -> 208 ;
209 [label="Age <= 24.5\ngini = 0.13\nsamples = 364\nvalue = [540, 39]\nclass = 0", fillcolor="#e78a47"] ;
7 -> 209 ;
210 [label="Geography_cat <= 0.5\ngini = 0.39\nsamples = 16\nvalue = [22, 8]\nclass = 0", fillcolor="#eeaf81"] ;
209 -> 210 ;
211 [label="gini = 0.0\nsamples = 7\nvalue = [12, 0]\nclass = 0", fillcolor="#e58139"] ;
210 -> 211 ;
212 [label="CreditScore <= 535.5\ngini = 0.49\nsamples = 9\nvalue = [10, 8]\nclass = 0", fillcolor="#fae6d7"] ;
210 -> 212 ;
213 [label="gini = 0.0\nsamples = 1\nvalue = [0, 4]\nclass = 1", fillcolor="#399de5"] ;
212 -> 213 ;
214 [label="EstimatedSalary <= 168927.72\ngini = 0.41\nsamples = 8\nvalue = [10, 4]\nclass = 0", fillcolor="#efb388"] ;
212 -> 214 ;
215 [label="Age <= 23.5\ngini = 0.17\nsamples = 7\nvalue = [10, 1]\nclass = 0", fillcolor="#e88e4d"] ;
214 -> 215 ;
216 [label="gini = 0.0\nsamples = 5\nvalue = [9, 0]\nclass = 0", fillcolor="#e58139"] ;
215 -> 216 ;
217 [label="EstimatedSalary <= 47859.25\ngini = 0.5\nsamples = 2\nvalue = [1, 1]\nclass = 0", fillcolor="#ffffff"] ;
215 -> 217 ;
218 [label="gini = 0.0\nsamples = 1\nvalue = [0, 1]\nclass = 1", fillcolor="#399de5"] ;
217 -> 218 ;
219 [label="gini = 0.0\nsamples = 1\nvalue = [1, 0]\nclass = 0", fillcolor="#e58139"] ;
217 -> 219 ;
220 [label="gini = 0.0\nsamples = 1\nvalue = [0, 3]\nclass = 1", fillcolor="#399de5"] ;
214 -> 220 ;
221 [label="HasCrCard <= 0.5\ngini = 0.11\nsamples = 348\nvalue = [518, 31]\nclass = 0", fillcolor="#e78945"] ;
209 -> 221 ;
222 [label="Balance <= 167836.16\ngini = 0.1\nsamples = 116\nvalue = [165, 9]\nclass = 0", fillcolor="#e68844"] ;
221 -> 222 ;
223 [label="Balance <= 129433.52\ngini = 0.07\nsamples = 113\nvalue = [164, 6]\nclass = 0", fillcolor="#e68640"] ;
222 -> 223 ;
224 [label="Geography_cat <= 0.5\ngini = 0.04\nsamples = 98\nvalue = [147, 3]\nclass = 0", fillcolor="#e6843d"] ;
223 -> 224 ;
225 [label="EstimatedSalary <= 180681.87\ngini = 0.02\nsamples = 62\nvalue = [88, 1]\nclass = 0", fillcolor="#e5823b"] ;
224 -> 225 ;
226 [label="gini = 0.0\nsamples = 55\nvalue = [76, 0]\nclass = 0", fillcolor="#e58139"] ;
225 -> 226 ;
227 [label="EstimatedSalary <= 183616.22\ngini = 0.14\nsamples = 7\nvalue = [12, 1]\nclass = 0", fillcolor="#e78c49"] ;
225 -> 227 ;
228 [label="gini = 0.0\nsamples = 1\nvalue = [0, 1]\nclass = 1", fillcolor="#399de5"] ;
227 -> 228 ;
229 [label="gini = 0.0\nsamples = 6\nvalue = [12, 0]\nclass = 0", fillcolor="#e58139"] ;
227 -> 229 ;
230 [label="Tenure <= 5.5\ngini = 0.06\nsamples = 36\nvalue = [59, 2]\nclass = 0", fillcolor="#e68540"] ;
224 -> 230 ;
231 [label="gini = 0.0\nsamples = 17\nvalue = [30, 0]\nclass = 0", fillcolor="#e58139"] ;
230 -> 231 ;
232 [label="Geography_cat <= 1.5\ngini = 0.12\nsamples = 19\nvalue = [29, 2]\nclass = 0", fillcolor="#e78a47"] ;
230 -> 232 ;
233 [label="Tenure <= 6.5\ngini = 0.14\nsamples = 15\nvalue = [25, 2]\nclass = 0", fillcolor="#e78b49"] ;
232 -> 233 ;
234 [label="Age <= 36.5\ngini = 0.3\nsamples = 4\nvalue = [9, 2]\nclass = 0", fillcolor="#eb9d65"] ;
233 -> 234 ;
235 [label="EstimatedSalary <= 7236.28\ngini = 0.48\nsamples = 2\nvalue = [3, 2]\nclass = 0", fillcolor="#f6d5bd"] ;
234 -> 235 ;
236 [label="gini = 0.0\nsamples = 1\nvalue = [0, 2]\nclass = 1", fillcolor="#399de5"] ;
235 -> 236 ;
237 [label="gini = 0.0\nsamples = 1\nvalue = [3, 0]\nclass = 0", fillcolor="#e58139"] ;
235 -> 237 ;
238 [label="gini = 0.0\nsamples = 2\nvalue = [6, 0]\nclass = 0", fillcolor="#e58139"] ;
234 -> 238 ;
239 [label="gini = 0.0\nsamples = 11\nvalue = [16, 0]\nclass = 0", fillcolor="#e58139"] ;
233 -> 239 ;
240 [label="gini = 0.0\nsamples = 4\nvalue = [4, 0]\nclass = 0", fillcolor="#e58139"] ;
232 -> 240 ;
241 [label="Balance <= 130487.23\ngini = 0.26\nsamples = 15\nvalue = [17, 3]\nclass = 0", fillcolor="#ea975c"] ;
223 -> 241 ;
242 [label="Balance <= 129846.46\ngini = 0.44\nsamples = 3\nvalue = [1, 2]\nclass = 1", fillcolor="#9ccef2"] ;
241 -> 242 ;
243 [label="gini = 0.0\nsamples = 1\nvalue = [0, 1]\nclass = 1", fillcolor="#399de5"] ;
242 -> 243 ;
244 [label="Age <= 37.5\ngini = 0.5\nsamples = 2\nvalue = [1, 1]\nclass = 0", fillcolor="#ffffff"] ;
242 -> 244 ;
245 [label="gini = 0.0\nsamples = 1\nvalue = [1, 0]\nclass = 0", fillcolor="#e58139"] ;
244 -> 245 ;
246 [label="gini = 0.0\nsamples = 1\nvalue = [0, 1]\nclass = 1", fillcolor="#399de5"] ;
244 -> 246 ;
247 [label="CreditScore <= 770.5\ngini = 0.11\nsamples = 12\nvalue = [16, 1]\nclass = 0", fillcolor="#e78945"] ;
241 -> 247 ;
248 [label="gini = 0.0\nsamples = 10\nvalue = [14, 0]\nclass = 0", fillcolor="#e58139"] ;
247 -> 248 ;
249 [label="EstimatedSalary <= 174832.74\ngini = 0.44\nsamples = 2\nvalue = [2, 1]\nclass = 0", fillcolor="#f2c09c"] ;
247 -> 249 ;
250 [label="gini = 0.0\nsamples = 1\nvalue = [2, 0]\nclass = 0", fillcolor="#e58139"] ;
249 -> 250 ;
251 [label="gini = 0.0\nsamples = 1\nvalue = [0, 1]\nclass = 1", fillcolor="#399de5"] ;
249 -> 251 ;
252 [label="Balance <= 172999.99\ngini = 0.38\nsamples = 3\nvalue = [1, 3]\nclass = 1", fillcolor="#7bbeee"] ;
222 -> 252 ;
253 [label="EstimatedSalary <= 122372.25\ngini = 0.5\nsamples = 2\nvalue = [1, 1]\nclass = 0", fillcolor="#ffffff"] ;
252 -> 253 ;
254 [label="gini = 0.0\nsamples = 1\nvalue = [1, 0]\nclass = 0", fillcolor="#e58139"] ;
253 -> 254 ;
255 [label="gini = 0.0\nsamples = 1\nvalue = [0, 1]\nclass = 1", fillcolor="#399de5"] ;
253 -> 255 ;
256 [label="gini = 0.0\nsamples = 1\nvalue = [0, 2]\nclass = 1", fillcolor="#399de5"] ;
252 -> 256 ;
257 [label="Balance <= 112839.54\ngini = 0.11\nsamples = 232\nvalue = [353, 22]\nclass = 0", fillcolor="#e78945"] ;
221 -> 257 ;
258 [label="Geography_cat <= 0.5\ngini = 0.07\nsamples = 179\nvalue = [286, 11]\nclass = 0", fillcolor="#e68641"] ;
257 -> 258 ;
259 [label="EstimatedSalary <= 178348.64\ngini = 0.11\nsamples = 106\nvalue = [163, 10]\nclass = 0", fillcolor="#e78945"] ;
258 -> 259 ;
260 [label="Age <= 40.5\ngini = 0.07\nsamples = 97\nvalue = [150, 6]\nclass = 0", fillcolor="#e68641"] ;
259 -> 260 ;
261 [label="EstimatedSalary <= 52225.66\ngini = 0.05\nsamples = 87\nvalue = [140, 4]\nclass = 0", fillcolor="#e6853f"] ;
260 -> 261 ;
262 [label="gini = 0.0\nsamples = 24\nvalue = [42, 0]\nclass = 0", fillcolor="#e58139"] ;
261 -> 262 ;
263 [label="Tenure <= 2.5\ngini = 0.08\nsamples = 63\nvalue = [98, 4]\nclass = 0", fillcolor="#e68641"] ;
261 -> 263 ;
264 [label="EstimatedSalary <= 54903.01\ngini = 0.23\nsamples = 17\nvalue = [20, 3]\nclass = 0", fillcolor="#e99457"] ;
263 -> 264 ;
265 [label="gini = 0.0\nsamples = 1\nvalue = [0, 1]\nclass = 1", fillcolor="#399de5"] ;
264 -> 265 ;
266 [label="EstimatedSalary <= 95954.32\ngini = 0.17\nsamples = 16\nvalue = [20, 2]\nclass = 0", fillcolor="#e88e4d"] ;
264 -> 266 ;
267 [label="Balance <= 49736.38\ngini = 0.35\nsamples = 6\nvalue = [7, 2]\nclass = 0", fillcolor="#eca572"] ;
266 -> 267 ;
268 [label="Age <= 32.0\ngini = 0.22\nsamples = 5\nvalue = [7, 1]\nclass = 0", fillcolor="#e99355"] ;
267 -> 268 ;
269 [label="EstimatedSalary <= 77662.52\ngini = 0.5\nsamples = 2\nvalue = [1, 1]\nclass = 0", fillcolor="#ffffff"] ;
268 -> 269 ;
270 [label="gini = 0.0\nsamples = 1\nvalue = [1, 0]\nclass = 0", fillcolor="#e58139"] ;
269 -> 270 ;
271 [label="gini = 0.0\nsamples = 1\nvalue = [0, 1]\nclass = 1", fillcolor="#399de5"] ;
269 -> 271 ;
272 [label="gini = 0.0\nsamples = 3\nvalue = [6, 0]\nclass = 0", fillcolor="#e58139"] ;
268 -> 272 ;
273 [label="gini = 0.0\nsamples = 1\nvalue = [0, 1]\nclass = 1", fillcolor="#399de5"] ;
267 -> 273 ;
274 [label="gini = 0.0\nsamples = 10\nvalue = [13, 0]\nclass = 0", fillcolor="#e58139"] ;
266 -> 274 ;
275 [label="CreditScore <= 460.5\ngini = 0.02\nsamples = 46\nvalue = [78, 1]\nclass = 0", fillcolor="#e5833c"] ;
263 -> 275 ;
276 [label="EstimatedSalary <= 139387.88\ngini = 0.18\nsamples = 4\nvalue = [9, 1]\nclass = 0", fillcolor="#e88f4f"] ;
275 -> 276 ;
277 [label="gini = 0.0\nsamples = 3\nvalue = [9, 0]\nclass = 0", fillcolor="#e58139"] ;
276 -> 277 ;
278 [label="gini = 0.0\nsamples = 1\nvalue = [0, 1]\nclass = 1", fillcolor="#399de5"] ;
276 -> 278 ;
279 [label="gini = 0.0\nsamples = 42\nvalue = [69, 0]\nclass = 0", fillcolor="#e58139"] ;
275 -> 279 ;
280 [label="Balance <= 41114.34\ngini = 0.28\nsamples = 10\nvalue = [10, 2]\nclass = 0", fillcolor="#ea9a61"] ;
260 -> 280 ;
281 [label="Age <= 41.5\ngini = 0.3\nsamples = 9\nvalue = [9, 2]\nclass = 0", fillcolor="#eb9d65"] ;
280 -> 281 ;
282 [label="Tenure <= 6.0\ngini = 0.48\nsamples = 4\nvalue = [3, 2]\nclass = 0", fillcolor="#f6d5bd"] ;
281 -> 282 ;
283 [label="gini = 0.0\nsamples = 3\nvalue = [3, 0]\nclass = 0", fillcolor="#e58139"] ;
282 -> 283 ;
284 [label="gini = 0.0\nsamples = 1\nvalue = [0, 2]\nclass = 1", fillcolor="#399de5"] ;
282 -> 284 ;
285 [label="gini = 0.0\nsamples = 5\nvalue = [6, 0]\nclass = 0", fillcolor="#e58139"] ;
281 -> 285 ;
286 [label="gini = 0.0\nsamples = 1\nvalue = [1, 0]\nclass = 0", fillcolor="#e58139"] ;
280 -> 286 ;
287 [label="EstimatedSalary <= 181930.49\ngini = 0.36\nsamples = 9\nvalue = [13, 4]\nclass = 0", fillcolor="#eda876"] ;
259 -> 287 ;
288 [label="gini = 0.0\nsamples = 1\nvalue = [0, 3]\nclass = 1", fillcolor="#399de5"] ;
287 -> 288 ;
289 [label="CreditScore <= 735.0\ngini = 0.13\nsamples = 8\nvalue = [13, 1]\nclass = 0", fillcolor="#e78b48"] ;
287 -> 289 ;
290 [label="gini = 0.0\nsamples = 6\nvalue = [12, 0]\nclass = 0", fillcolor="#e58139"] ;
289 -> 290 ;
291 [label="Tenure <= 7.5\ngini = 0.5\nsamples = 2\nvalue = [1, 1]\nclass = 0", fillcolor="#ffffff"] ;
289 -> 291 ;
292 [label="gini = 0.0\nsamples = 1\nvalue = [1, 0]\nclass = 0", fillcolor="#e58139"] ;
291 -> 292 ;
293 [label="gini = 0.0\nsamples = 1\nvalue = [0, 1]\nclass = 1", fillcolor="#399de5"] ;
291 -> 293 ;
294 [label="CreditScore <= 690.5\ngini = 0.02\nsamples = 73\nvalue = [123, 1]\nclass = 0", fillcolor="#e5823b"] ;
258 -> 294 ;
295 [label="gini = 0.0\nsamples = 54\nvalue = [86, 0]\nclass = 0", fillcolor="#e58139"] ;
294 -> 295 ;
296 [label="EstimatedSalary <= 162984.23\ngini = 0.05\nsamples = 19\nvalue = [37, 1]\nclass = 0", fillcolor="#e6843e"] ;
294 -> 296 ;
297 [label="gini = 0.0\nsamples = 16\nvalue = [33, 0]\nclass = 0", fillcolor="#e58139"] ;
296 -> 297 ;
298 [label="CreditScore <= 720.5\ngini = 0.32\nsamples = 3\nvalue = [4, 1]\nclass = 0", fillcolor="#eca06a"] ;
296 -> 298 ;
299 [label="gini = 0.0\nsamples = 1\nvalue = [0, 1]\nclass = 1", fillcolor="#399de5"] ;
298 -> 299 ;
300 [label="gini = 0.0\nsamples = 2\nvalue = [4, 0]\nclass = 0", fillcolor="#e58139"] ;
298 -> 300 ;
301 [label="Balance <= 116367.61\ngini = 0.24\nsamples = 53\nvalue = [67, 11]\nclass = 0", fillcolor="#e9965a"] ;
257 -> 301 ;
302 [label="gini = 0.0\nsamples = 2\nvalue = [0, 2]\nclass = 1", fillcolor="#399de5"] ;
301 -> 302 ;
303 [label="Geography_cat <= 0.5\ngini = 0.21\nsamples = 51\nvalue = [67, 9]\nclass = 0", fillcolor="#e89254"] ;
301 -> 303 ;
304 [label="Balance <= 166705.19\ngini = 0.17\nsamples = 21\nvalue = [30, 3]\nclass = 0", fillcolor="#e88e4d"] ;
303 -> 304 ;
305 [label="EstimatedSalary <= 87767.41\ngini = 0.07\nsamples = 17\nvalue = [25, 1]\nclass = 0", fillcolor="#e68641"] ;
304 -> 305 ;
306 [label="Age <= 36.5\ngini = 0.18\nsamples = 4\nvalue = [9, 1]\nclass = 0", fillcolor="#e88f4f"] ;
305 -> 306 ;
307 [label="gini = 0.0\nsamples = 2\nvalue = [6, 0]\nclass = 0", fillcolor="#e58139"] ;
306 -> 307 ;
308 [label="CreditScore <= 647.5\ngini = 0.38\nsamples = 2\nvalue = [3, 1]\nclass = 0", fillcolor="#eeab7b"] ;
306 -> 308 ;
309 [label="gini = 0.0\nsamples = 1\nvalue = [3, 0]\nclass = 0", fillcolor="#e58139"] ;
308 -> 309 ;
310 [label="gini = 0.0\nsamples = 1\nvalue = [0, 1]\nclass = 1", fillcolor="#399de5"] ;
308 -> 310 ;
311 [label="gini = 0.0\nsamples = 13\nvalue = [16, 0]\nclass = 0", fillcolor="#e58139"] ;
305 -> 311 ;
312 [label="CreditScore <= 642.0\ngini = 0.41\nsamples = 4\nvalue = [5, 2]\nclass = 0", fillcolor="#efb388"] ;
304 -> 312 ;
313 [label="gini = 0.0\nsamples = 2\nvalue = [4, 0]\nclass = 0", fillcolor="#e58139"] ;
312 -> 313 ;
314 [label="Age <= 37.0\ngini = 0.44\nsamples = 2\nvalue = [1, 2]\nclass = 1", fillcolor="#9ccef2"] ;
312 -> 314 ;
315 [label="gini = 0.0\nsamples = 1\nvalue = [0, 2]\nclass = 1", fillcolor="#399de5"] ;
314 -> 315 ;
316 [label="gini = 0.0\nsamples = 1\nvalue = [1, 0]\nclass = 0", fillcolor="#e58139"] ;
314 -> 316 ;
317 [label="EstimatedSalary <= 62794.58\ngini = 0.24\nsamples = 30\nvalue = [37, 6]\nclass = 0", fillcolor="#e99559"] ;
303 -> 317 ;
318 [label="Balance <= 124742.22\ngini = 0.43\nsamples = 11\nvalue = [11, 5]\nclass = 0", fillcolor="#f1ba93"] ;
317 -> 318 ;
319 [label="gini = 0.0\nsamples = 3\nvalue = [5, 0]\nclass = 0", fillcolor="#e58139"] ;
318 -> 319 ;
320 [label="Balance <= 127660.35\ngini = 0.5\nsamples = 8\nvalue = [6, 5]\nclass = 0", fillcolor="#fbeade"] ;
318 -> 320 ;
321 [label="gini = 0.0\nsamples = 2\nvalue = [0, 3]\nclass = 1", fillcolor="#399de5"] ;
320 -> 321 ;
322 [label="Balance <= 146016.26\ngini = 0.38\nsamples = 6\nvalue = [6, 2]\nclass = 0", fillcolor="#eeab7b"] ;
320 -> 322 ;
323 [label="gini = 0.0\nsamples = 4\nvalue = [5, 0]\nclass = 0", fillcolor="#e58139"] ;
322 -> 323 ;
324 [label="Balance <= 157944.73\ngini = 0.44\nsamples = 2\nvalue = [1, 2]\nclass = 1", fillcolor="#9ccef2"] ;
322 -> 324 ;
325 [label="gini = 0.0\nsamples = 1\nvalue = [0, 2]\nclass = 1", fillcolor="#399de5"] ;
324 -> 325 ;
326 [label="gini = 0.0\nsamples = 1\nvalue = [1, 0]\nclass = 0", fillcolor="#e58139"] ;
324 -> 326 ;
327 [label="Age <= 36.5\ngini = 0.07\nsamples = 19\nvalue = [26, 1]\nclass = 0", fillcolor="#e68641"] ;
317 -> 327 ;
328 [label="gini = 0.0\nsamples = 10\nvalue = [16, 0]\nclass = 0", fillcolor="#e58139"] ;
327 -> 328 ;
329 [label="EstimatedSalary <= 135826.8\ngini = 0.17\nsamples = 9\nvalue = [10, 1]\nclass = 0", fillcolor="#e88e4d"] ;
327 -> 329 ;
330 [label="EstimatedSalary <= 122009.86\ngini = 0.32\nsamples = 5\nvalue = [4, 1]\nclass = 0", fillcolor="#eca06a"] ;
329 -> 330 ;
331 [label="gini = 0.0\nsamples = 4\nvalue = [4, 0]\nclass = 0", fillcolor="#e58139"] ;
330 -> 331 ;
332 [label="gini = 0.0\nsamples = 1\nvalue = [0, 1]\nclass = 1", fillcolor="#399de5"] ;
330 -> 332 ;
333 [label="gini = 0.0\nsamples = 4\nvalue = [6, 0]\nclass = 0", fillcolor="#e58139"] ;
329 -> 333 ;
334 [label="NumOfProducts <= 1.5\ngini = 0.46\nsamples = 258\nvalue = [150, 258]\nclass = 1", fillcolor="#acd6f4"] ;
4 -> 334 ;
335 [label="Balance <= 165554.58\ngini = 0.32\nsamples = 179\nvalue = [56, 224]\nclass = 1", fillcolor="#6ab6ec"] ;
334 -> 335 ;
336 [label="Balance <= 105001.93\ngini = 0.3\nsamples = 173\nvalue = [50, 221]\nclass = 1", fillcolor="#66b3eb"] ;
335 -> 336 ;
337 [label="CreditScore <= 702.5\ngini = 0.22\nsamples = 85\nvalue = [17, 121]\nclass = 1", fillcolor="#55abe9"] ;
336 -> 337 ;
338 [label="Tenure <= 0.5\ngini = 0.27\nsamples = 67\nvalue = [17, 89]\nclass = 1", fillcolor="#5fb0ea"] ;
337 -> 338 ;
339 [label="gini = 0.0\nsamples = 1\nvalue = [2, 0]\nclass = 0", fillcolor="#e58139"] ;
338 -> 339 ;
340 [label="CreditScore <= 699.5\ngini = 0.25\nsamples = 66\nvalue = [15, 89]\nclass = 1", fillcolor="#5aaee9"] ;
338 -> 340 ;
341 [label="EstimatedSalary <= 89918.12\ngini = 0.23\nsamples = 65\nvalue = [14, 89]\nclass = 1", fillcolor="#58ace9"] ;
340 -> 341 ;
342 [label="Balance <= 80811.37\ngini = 0.12\nsamples = 26\nvalue = [3, 45]\nclass = 1", fillcolor="#46a4e7"] ;
341 -> 342 ;
343 [label="Age <= 52.5\ngini = 0.09\nsamples = 24\nvalue = [2, 42]\nclass = 1", fillcolor="#42a2e6"] ;
342 -> 343 ;
344 [label="Geography_cat <= 0.5\ngini = 0.15\nsamples = 12\nvalue = [2, 23]\nclass = 1", fillcolor="#4aa6e7"] ;
343 -> 344 ;
345 [label="Age <= 50.5\ngini = 0.16\nsamples = 10\nvalue = [2, 21]\nclass = 1", fillcolor="#4ca6e7"] ;
344 -> 345 ;
346 [label="Age <= 47.0\ngini = 0.09\nsamples = 9\nvalue = [1, 21]\nclass = 1", fillcolor="#42a2e6"] ;
345 -> 346 ;
347 [label="gini = 0.0\nsamples = 4\nvalue = [0, 10]\nclass = 1", fillcolor="#399de5"] ;
346 -> 347 ;
348 [label="EstimatedSalary <= 58591.43\ngini = 0.15\nsamples = 5\nvalue = [1, 11]\nclass = 1", fillcolor="#4ba6e7"] ;
346 -> 348 ;
349 [label="CreditScore <= 593.0\ngini = 0.28\nsamples = 3\nvalue = [1, 5]\nclass = 1", fillcolor="#61b1ea"] ;
348 -> 349 ;
350 [label="gini = 0.0\nsamples = 1\nvalue = [1, 0]\nclass = 0", fillcolor="#e58139"] ;
349 -> 350 ;
351 [label="gini = 0.0\nsamples = 2\nvalue = [0, 5]\nclass = 1", fillcolor="#399de5"] ;
349 -> 351 ;
352 [label="gini = 0.0\nsamples = 2\nvalue = [0, 6]\nclass = 1", fillcolor="#399de5"] ;
348 -> 352 ;
353 [label="gini = 0.0\nsamples = 1\nvalue = [1, 0]\nclass = 0", fillcolor="#e58139"] ;
345 -> 353 ;
354 [label="gini = 0.0\nsamples = 2\nvalue = [0, 2]\nclass = 1", fillcolor="#399de5"] ;
344 -> 354 ;
355 [label="gini = 0.0\nsamples = 12\nvalue = [0, 19]\nclass = 1", fillcolor="#399de5"] ;
343 -> 355 ;
356 [label="EstimatedSalary <= 33063.52\ngini = 0.38\nsamples = 2\nvalue = [1, 3]\nclass = 1", fillcolor="#7bbeee"] ;
342 -> 356 ;
357 [label="gini = 0.0\nsamples = 1\nvalue = [1, 0]\nclass = 0", fillcolor="#e58139"] ;
356 -> 357 ;
358 [label="gini = 0.0\nsamples = 1\nvalue = [0, 3]\nclass = 1", fillcolor="#399de5"] ;
356 -> 358 ;
359 [label="HasCrCard <= 0.5\ngini = 0.32\nsamples = 39\nvalue = [11, 44]\nclass = 1", fillcolor="#6ab6ec"] ;
341 -> 359 ;
360 [label="EstimatedSalary <= 118566.19\ngini = 0.09\nsamples = 14\nvalue = [1, 19]\nclass = 1", fillcolor="#43a2e6"] ;
359 -> 360 ;
361 [label="Balance <= 34664.73\ngini = 0.44\nsamples = 3\nvalue = [1, 2]\nclass = 1", fillcolor="#9ccef2"] ;
360 -> 361 ;
362 [label="CreditScore <= 663.0\ngini = 0.5\nsamples = 2\nvalue = [1, 1]\nclass = 0", fillcolor="#ffffff"] ;
361 -> 362 ;
363 [label="gini = 0.0\nsamples = 1\nvalue = [0, 1]\nclass = 1", fillcolor="#399de5"] ;
362 -> 363 ;
364 [label="gini = 0.0\nsamples = 1\nvalue = [1, 0]\nclass = 0", fillcolor="#e58139"] ;
362 -> 364 ;
365 [label="gini = 0.0\nsamples = 1\nvalue = [0, 1]\nclass = 1", fillcolor="#399de5"] ;
361 -> 365 ;
366 [label="gini = 0.0\nsamples = 11\nvalue = [0, 17]\nclass = 1", fillcolor="#399de5"] ;
360 -> 366 ;
367 [label="Balance <= 66768.66\ngini = 0.41\nsamples = 25\nvalue = [10, 25]\nclass = 1", fillcolor="#88c4ef"] ;
359 -> 367 ;
368 [label="Geography_cat <= 1.5\ngini = 0.49\nsamples = 15\nvalue = [8, 11]\nclass = 1", fillcolor="#c9e4f8"] ;
367 -> 368 ;
369 [label="Age <= 46.5\ngini = 0.48\nsamples = 14\nvalue = [7, 11]\nclass = 1", fillcolor="#b7dbf6"] ;
368 -> 369 ;
370 [label="Balance <= 32448.88\ngini = 0.41\nsamples = 6\nvalue = [5, 2]\nclass = 0", fillcolor="#efb388"] ;
369 -> 370 ;
371 [label="EstimatedSalary <= 134584.43\ngini = 0.44\nsamples = 5\nvalue = [4, 2]\nclass = 0", fillcolor="#f2c09c"] ;
370 -> 371 ;
372 [label="Age <= 44.0\ngini = 0.44\nsamples = 3\nvalue = [1, 2]\nclass = 1", fillcolor="#9ccef2"] ;
371 -> 372 ;
373 [label="EstimatedSalary <= 114798.75\ngini = 0.5\nsamples = 2\nvalue = [1, 1]\nclass = 0", fillcolor="#ffffff"] ;
372 -> 373 ;
374 [label="gini = 0.0\nsamples = 1\nvalue = [1, 0]\nclass = 0", fillcolor="#e58139"] ;
373 -> 374 ;
375 [label="gini = 0.0\nsamples = 1\nvalue = [0, 1]\nclass = 1", fillcolor="#399de5"] ;
373 -> 375 ;
376 [label="gini = 0.0\nsamples = 1\nvalue = [0, 1]\nclass = 1", fillcolor="#399de5"] ;
372 -> 376 ;
377 [label="gini = 0.0\nsamples = 2\nvalue = [3, 0]\nclass = 0", fillcolor="#e58139"] ;
371 -> 377 ;
378 [label="gini = 0.0\nsamples = 1\nvalue = [1, 0]\nclass = 0", fillcolor="#e58139"] ;
370 -> 378 ;
379 [label="Tenure <= 3.5\ngini = 0.3\nsamples = 8\nvalue = [2, 9]\nclass = 1", fillcolor="#65b3eb"] ;
369 -> 379 ;
380 [label="Age <= 62.0\ngini = 0.5\nsamples = 2\nvalue = [2, 2]\nclass = 0", fillcolor="#ffffff"] ;
379 -> 380 ;
381 [label="gini = 0.0\nsamples = 1\nvalue = [0, 2]\nclass = 1", fillcolor="#399de5"] ;
380 -> 381 ;
382 [label="gini = 0.0\nsamples = 1\nvalue = [2, 0]\nclass = 0", fillcolor="#e58139"] ;
380 -> 382 ;
383 [label="gini = 0.0\nsamples = 6\nvalue = [0, 7]\nclass = 1", fillcolor="#399de5"] ;
379 -> 383 ;
384 [label="gini = 0.0\nsamples = 1\nvalue = [1, 0]\nclass = 0", fillcolor="#e58139"] ;
368 -> 384 ;
385 [label="CreditScore <= 535.0\ngini = 0.22\nsamples = 10\nvalue = [2, 14]\nclass = 1", fillcolor="#55abe9"] ;
367 -> 385 ;
386 [label="gini = 0.0\nsamples = 4\nvalue = [0, 8]\nclass = 1", fillcolor="#399de5"] ;
385 -> 386 ;
387 [label="Geography_cat <= 1.0\ngini = 0.38\nsamples = 6\nvalue = [2, 6]\nclass = 1", fillcolor="#7bbeee"] ;
385 -> 387 ;
388 [label="EstimatedSalary <= 140977.86\ngini = 0.24\nsamples = 5\nvalue = [1, 6]\nclass = 1", fillcolor="#5aade9"] ;
387 -> 388 ;
389 [label="Tenure <= 7.5\ngini = 0.5\nsamples = 2\nvalue = [1, 1]\nclass = 0", fillcolor="#ffffff"] ;
388 -> 389 ;
390 [label="gini = 0.0\nsamples = 1\nvalue = [1, 0]\nclass = 0", fillcolor="#e58139"] ;
389 -> 390 ;
391 [label="gini = 0.0\nsamples = 1\nvalue = [0, 1]\nclass = 1", fillcolor="#399de5"] ;
389 -> 391 ;
392 [label="gini = 0.0\nsamples = 3\nvalue = [0, 5]\nclass = 1", fillcolor="#399de5"] ;
388 -> 392 ;
393 [label="gini = 0.0\nsamples = 1\nvalue = [1, 0]\nclass = 0", fillcolor="#e58139"] ;
387 -> 393 ;
394 [label="gini = 0.0\nsamples = 1\nvalue = [1, 0]\nclass = 0", fillcolor="#e58139"] ;
340 -> 394 ;
395 [label="gini = 0.0\nsamples = 18\nvalue = [0, 32]\nclass = 1", fillcolor="#399de5"] ;
337 -> 395 ;
396 [label="Geography_cat <= 1.5\ngini = 0.37\nsamples = 88\nvalue = [33, 100]\nclass = 1", fillcolor="#7abdee"] ;
336 -> 396 ;
397 [label="Geography_cat <= 0.5\ngini = 0.44\nsamples = 41\nvalue = [20, 40]\nclass = 1", fillcolor="#9ccef2"] ;
396 -> 397 ;
398 [label="Age <= 50.0\ngini = 0.36\nsamples = 30\nvalue = [11, 35]\nclass = 1", fillcolor="#77bced"] ;
397 -> 398 ;
399 [label="Balance <= 138404.34\ngini = 0.5\nsamples = 15\nvalue = [10, 11]\nclass = 1", fillcolor="#edf6fd"] ;
398 -> 399 ;
400 [label="Age <= 46.5\ngini = 0.46\nsamples = 12\nvalue = [6, 11]\nclass = 1", fillcolor="#a5d2f3"] ;
399 -> 400 ;
401 [label="EstimatedSalary <= 193562.37\ngini = 0.32\nsamples = 7\nvalue = [2, 8]\nclass = 1", fillcolor="#6ab6ec"] ;
400 -> 401 ;
402 [label="Balance <= 131082.13\ngini = 0.2\nsamples = 6\nvalue = [1, 8]\nclass = 1", fillcolor="#52a9e8"] ;
401 -> 402 ;
403 [label="Tenure <= 3.5\ngini = 0.38\nsamples = 3\nvalue = [1, 3]\nclass = 1", fillcolor="#7bbeee"] ;
402 -> 403 ;
404 [label="gini = 0.0\nsamples = 2\nvalue = [0, 3]\nclass = 1", fillcolor="#399de5"] ;
403 -> 404 ;
405 [label="gini = 0.0\nsamples = 1\nvalue = [1, 0]\nclass = 0", fillcolor="#e58139"] ;
403 -> 405 ;
406 [label="gini = 0.0\nsamples = 3\nvalue = [0, 5]\nclass = 1", fillcolor="#399de5"] ;
402 -> 406 ;
407 [label="gini = 0.0\nsamples = 1\nvalue = [1, 0]\nclass = 0", fillcolor="#e58139"] ;
401 -> 407 ;
408 [label="Tenure <= 3.5\ngini = 0.49\nsamples = 5\nvalue = [4, 3]\nclass = 0", fillcolor="#f8e0ce"] ;
400 -> 408 ;
409 [label="gini = 0.0\nsamples = 2\nvalue = [0, 3]\nclass = 1", fillcolor="#399de5"] ;
408 -> 409 ;
410 [label="gini = 0.0\nsamples = 3\nvalue = [4, 0]\nclass = 0", fillcolor="#e58139"] ;
408 -> 410 ;
411 [label="gini = 0.0\nsamples = 3\nvalue = [4, 0]\nclass = 0", fillcolor="#e58139"] ;
399 -> 411 ;
412 [label="Tenure <= 4.5\ngini = 0.08\nsamples = 15\nvalue = [1, 24]\nclass = 1", fillcolor="#41a1e6"] ;
398 -> 412 ;
413 [label="CreditScore <= 480.5\ngini = 0.28\nsamples = 6\nvalue = [1, 5]\nclass = 1", fillcolor="#61b1ea"] ;
412 -> 413 ;
414 [label="gini = 0.0\nsamples = 1\nvalue = [1, 0]\nclass = 0", fillcolor="#e58139"] ;
413 -> 414 ;
415 [label="gini = 0.0\nsamples = 5\nvalue = [0, 5]\nclass = 1", fillcolor="#399de5"] ;
413 -> 415 ;
416 [label="gini = 0.0\nsamples = 9\nvalue = [0, 19]\nclass = 1", fillcolor="#399de5"] ;
412 -> 416 ;
417 [label="Age <= 48.0\ngini = 0.46\nsamples = 11\nvalue = [9, 5]\nclass = 0", fillcolor="#f3c7a7"] ;
397 -> 417 ;
418 [label="Age <= 45.0\ngini = 0.3\nsamples = 8\nvalue = [9, 2]\nclass = 0", fillcolor="#eb9d65"] ;
417 -> 418 ;
419 [label="gini = 0.0\nsamples = 3\nvalue = [4, 0]\nclass = 0", fillcolor="#e58139"] ;
418 -> 419 ;
420 [label="Balance <= 123523.05\ngini = 0.41\nsamples = 5\nvalue = [5, 2]\nclass = 0", fillcolor="#efb388"] ;
418 -> 420 ;
421 [label="gini = 0.0\nsamples = 2\nvalue = [0, 2]\nclass = 1", fillcolor="#399de5"] ;
420 -> 421 ;
422 [label="gini = 0.0\nsamples = 3\nvalue = [5, 0]\nclass = 0", fillcolor="#e58139"] ;
420 -> 422 ;
423 [label="gini = 0.0\nsamples = 3\nvalue = [0, 3]\nclass = 1", fillcolor="#399de5"] ;
417 -> 423 ;
424 [label="Tenure <= 6.5\ngini = 0.29\nsamples = 47\nvalue = [13, 60]\nclass = 1", fillcolor="#64b2eb"] ;
396 -> 424 ;
425 [label="CreditScore <= 773.5\ngini = 0.37\nsamples = 33\nvalue = [13, 40]\nclass = 1", fillcolor="#79bded"] ;
424 -> 425 ;
426 [label="Balance <= 121372.96\ngini = 0.3\nsamples = 29\nvalue = [9, 39]\nclass = 1", fillcolor="#67b4eb"] ;
425 -> 426 ;
427 [label="gini = 0.0\nsamples = 8\nvalue = [0, 12]\nclass = 1", fillcolor="#399de5"] ;
426 -> 427 ;
428 [label="EstimatedSalary <= 7091.13\ngini = 0.38\nsamples = 21\nvalue = [9, 27]\nclass = 1", fillcolor="#7bbeee"] ;
426 -> 428 ;
429 [label="gini = 0.0\nsamples = 1\nvalue = [3, 0]\nclass = 0", fillcolor="#e58139"] ;
428 -> 429 ;
430 [label="HasCrCard <= 0.5\ngini = 0.3\nsamples = 20\nvalue = [6, 27]\nclass = 1", fillcolor="#65b3eb"] ;
428 -> 430 ;
431 [label="CreditScore <= 556.5\ngini = 0.5\nsamples = 2\nvalue = [1, 1]\nclass = 0", fillcolor="#ffffff"] ;
430 -> 431 ;
432 [label="gini = 0.0\nsamples = 1\nvalue = [1, 0]\nclass = 0", fillcolor="#e58139"] ;
431 -> 432 ;
433 [label="gini = 0.0\nsamples = 1\nvalue = [0, 1]\nclass = 1", fillcolor="#399de5"] ;
431 -> 433 ;
434 [label="EstimatedSalary <= 98191.18\ngini = 0.27\nsamples = 18\nvalue = [5, 26]\nclass = 1", fillcolor="#5fb0ea"] ;
430 -> 434 ;
435 [label="gini = 0.0\nsamples = 8\nvalue = [0, 13]\nclass = 1", fillcolor="#399de5"] ;
434 -> 435 ;
436 [label="Age <= 44.5\ngini = 0.4\nsamples = 10\nvalue = [5, 13]\nclass = 1", fillcolor="#85c3ef"] ;
434 -> 436 ;
437 [label="EstimatedSalary <= 123454.32\ngini = 0.44\nsamples = 2\nvalue = [2, 1]\nclass = 0", fillcolor="#f2c09c"] ;
436 -> 437 ;
438 [label="gini = 0.0\nsamples = 1\nvalue = [2, 0]\nclass = 0", fillcolor="#e58139"] ;
437 -> 438 ;
439 [label="gini = 0.0\nsamples = 1\nvalue = [0, 1]\nclass = 1", fillcolor="#399de5"] ;
437 -> 439 ;
440 [label="EstimatedSalary <= 113273.61\ngini = 0.32\nsamples = 8\nvalue = [3, 12]\nclass = 1", fillcolor="#6ab6ec"] ;
436 -> 440 ;
441 [label="gini = 0.0\nsamples = 1\nvalue = [2, 0]\nclass = 0", fillcolor="#e58139"] ;
440 -> 441 ;
442 [label="CreditScore <= 707.0\ngini = 0.14\nsamples = 7\nvalue = [1, 12]\nclass = 1", fillcolor="#49a5e7"] ;
440 -> 442 ;
443 [label="gini = 0.0\nsamples = 5\nvalue = [0, 9]\nclass = 1", fillcolor="#399de5"] ;
442 -> 443 ;
444 [label="EstimatedSalary <= 133016.82\ngini = 0.38\nsamples = 2\nvalue = [1, 3]\nclass = 1", fillcolor="#7bbeee"] ;
442 -> 444 ;
445 [label="gini = 0.0\nsamples = 1\nvalue = [0, 3]\nclass = 1", fillcolor="#399de5"] ;
444 -> 445 ;
446 [label="gini = 0.0\nsamples = 1\nvalue = [1, 0]\nclass = 0", fillcolor="#e58139"] ;
444 -> 446 ;
447 [label="EstimatedSalary <= 147967.05\ngini = 0.32\nsamples = 4\nvalue = [4, 1]\nclass = 0", fillcolor="#eca06a"] ;
425 -> 447 ;
448 [label="gini = 0.0\nsamples = 3\nvalue = [4, 0]\nclass = 0", fillcolor="#e58139"] ;
447 -> 448 ;
449 [label="gini = 0.0\nsamples = 1\nvalue = [0, 1]\nclass = 1", fillcolor="#399de5"] ;
447 -> 449 ;
450 [label="gini = 0.0\nsamples = 14\nvalue = [0, 20]\nclass = 1", fillcolor="#399de5"] ;
424 -> 450 ;
451 [label="Age <= 46.5\ngini = 0.44\nsamples = 6\nvalue = [6, 3]\nclass = 0", fillcolor="#f2c09c"] ;
335 -> 451 ;
452 [label="gini = 0.0\nsamples = 1\nvalue = [3, 0]\nclass = 0", fillcolor="#e58139"] ;
451 -> 452 ;
453 [label="Geography_cat <= 0.5\ngini = 0.5\nsamples = 5\nvalue = [3, 3]\nclass = 0", fillcolor="#ffffff"] ;
451 -> 453 ;
454 [label="gini = 0.0\nsamples = 2\nvalue = [3, 0]\nclass = 0", fillcolor="#e58139"] ;
453 -> 454 ;
455 [label="gini = 0.0\nsamples = 3\nvalue = [0, 3]\nclass = 1", fillcolor="#399de5"] ;
453 -> 455 ;
456 [label="CreditScore <= 777.5\ngini = 0.39\nsamples = 79\nvalue = [94, 34]\nclass = 0", fillcolor="#eeaf81"] ;
334 -> 456 ;
457 [label="CreditScore <= 598.0\ngini = 0.36\nsamples = 74\nvalue = [92, 28]\nclass = 0", fillcolor="#eda775"] ;
456 -> 457 ;
458 [label="EstimatedSalary <= 139173.51\ngini = 0.49\nsamples = 25\nvalue = [21, 16]\nclass = 0", fillcolor="#f9e1d0"] ;
457 -> 458 ;
459 [label="EstimatedSalary <= 75831.0\ngini = 0.41\nsamples = 20\nvalue = [20, 8]\nclass = 0", fillcolor="#efb388"] ;
458 -> 459 ;
460 [label="Balance <= 34446.39\ngini = 0.49\nsamples = 12\nvalue = [9, 7]\nclass = 0", fillcolor="#f9e3d3"] ;
459 -> 460 ;
461 [label="Tenure <= 5.5\ngini = 0.3\nsamples = 8\nvalue = [9, 2]\nclass = 0", fillcolor="#eb9d65"] ;
460 -> 461 ;
462 [label="CreditScore <= 588.0\ngini = 0.18\nsamples = 7\nvalue = [9, 1]\nclass = 0", fillcolor="#e88f4f"] ;
461 -> 462 ;
463 [label="gini = 0.0\nsamples = 6\nvalue = [9, 0]\nclass = 0", fillcolor="#e58139"] ;
462 -> 463 ;
464 [label="gini = 0.0\nsamples = 1\nvalue = [0, 1]\nclass = 1", fillcolor="#399de5"] ;
462 -> 464 ;
465 [label="gini = 0.0\nsamples = 1\nvalue = [0, 1]\nclass = 1", fillcolor="#399de5"] ;
461 -> 465 ;
466 [label="gini = 0.0\nsamples = 4\nvalue = [0, 5]\nclass = 1", fillcolor="#399de5"] ;
460 -> 466 ;
467 [label="Tenure <= 5.5\ngini = 0.15\nsamples = 8\nvalue = [11, 1]\nclass = 0", fillcolor="#e78c4b"] ;
459 -> 467 ;
468 [label="gini = 0.0\nsamples = 4\nvalue = [6, 0]\nclass = 0", fillcolor="#e58139"] ;
467 -> 468 ;
469 [label="Balance <= 67907.35\ngini = 0.28\nsamples = 4\nvalue = [5, 1]\nclass = 0", fillcolor="#ea9a61"] ;
467 -> 469 ;
470 [label="Age <= 60.0\ngini = 0.32\nsamples = 3\nvalue = [4, 1]\nclass = 0", fillcolor="#eca06a"] ;
469 -> 470 ;
471 [label="gini = 0.0\nsamples = 2\nvalue = [4, 0]\nclass = 0", fillcolor="#e58139"] ;
470 -> 471 ;
472 [label="gini = 0.0\nsamples = 1\nvalue = [0, 1]\nclass = 1", fillcolor="#399de5"] ;
470 -> 472 ;
473 [label="gini = 0.0\nsamples = 1\nvalue = [1, 0]\nclass = 0", fillcolor="#e58139"] ;
469 -> 473 ;
474 [label="Balance <= 45840.05\ngini = 0.2\nsamples = 5\nvalue = [1, 8]\nclass = 1", fillcolor="#52a9e8"] ;
458 -> 474 ;
475 [label="Age <= 44.0\ngini = 0.44\nsamples = 2\nvalue = [1, 2]\nclass = 1", fillcolor="#9ccef2"] ;
474 -> 475 ;
476 [label="gini = 0.0\nsamples = 1\nvalue = [1, 0]\nclass = 0", fillcolor="#e58139"] ;
475 -> 476 ;
477 [label="gini = 0.0\nsamples = 1\nvalue = [0, 2]\nclass = 1", fillcolor="#399de5"] ;
475 -> 477 ;
478 [label="gini = 0.0\nsamples = 3\nvalue = [0, 6]\nclass = 1", fillcolor="#399de5"] ;
474 -> 478 ;
479 [label="Age <= 50.5\ngini = 0.25\nsamples = 49\nvalue = [71, 12]\nclass = 0", fillcolor="#e9965a"] ;
457 -> 479 ;
480 [label="Balance <= 120059.45\ngini = 0.15\nsamples = 41\nvalue = [69, 6]\nclass = 0", fillcolor="#e78c4a"] ;
479 -> 480 ;
481 [label="Geography_cat <= 0.5\ngini = 0.11\nsamples = 35\nvalue = [62, 4]\nclass = 0", fillcolor="#e78946"] ;
480 -> 481 ;
482 [label="CreditScore <= 627.5\ngini = 0.19\nsamples = 18\nvalue = [34, 4]\nclass = 0", fillcolor="#e89050"] ;
481 -> 482 ;
483 [label="Tenure <= 5.5\ngini = 0.41\nsamples = 2\nvalue = [5, 2]\nclass = 0", fillcolor="#efb388"] ;
482 -> 483 ;
484 [label="gini = 0.0\nsamples = 1\nvalue = [0, 2]\nclass = 1", fillcolor="#399de5"] ;
483 -> 484 ;
485 [label="gini = 0.0\nsamples = 1\nvalue = [5, 0]\nclass = 0", fillcolor="#e58139"] ;
483 -> 485 ;
486 [label="Age <= 44.5\ngini = 0.12\nsamples = 16\nvalue = [29, 2]\nclass = 0", fillcolor="#e78a47"] ;
482 -> 486 ;
487 [label="gini = 0.0\nsamples = 6\nvalue = [15, 0]\nclass = 0", fillcolor="#e58139"] ;
486 -> 487 ;
488 [label="HasCrCard <= 0.5\ngini = 0.22\nsamples = 10\nvalue = [14, 2]\nclass = 0", fillcolor="#e99355"] ;
486 -> 488 ;
489 [label="gini = 0.0\nsamples = 6\nvalue = [11, 0]\nclass = 0", fillcolor="#e58139"] ;
488 -> 489 ;
490 [label="EstimatedSalary <= 48257.74\ngini = 0.48\nsamples = 4\nvalue = [3, 2]\nclass = 0", fillcolor="#f6d5bd"] ;
488 -> 490 ;
491 [label="gini = 0.0\nsamples = 1\nvalue = [0, 2]\nclass = 1", fillcolor="#399de5"] ;
490 -> 491 ;
492 [label="gini = 0.0\nsamples = 3\nvalue = [3, 0]\nclass = 0", fillcolor="#e58139"] ;
490 -> 492 ;
493 [label="gini = 0.0\nsamples = 17\nvalue = [28, 0]\nclass = 0", fillcolor="#e58139"] ;
481 -> 493 ;
494 [label="Age <= 45.5\ngini = 0.35\nsamples = 6\nvalue = [7, 2]\nclass = 0", fillcolor="#eca572"] ;
480 -> 494 ;
495 [label="gini = 0.0\nsamples = 2\nvalue = [3, 0]\nclass = 0", fillcolor="#e58139"] ;
494 -> 495 ;
496 [label="EstimatedSalary <= 58855.29\ngini = 0.44\nsamples = 4\nvalue = [4, 2]\nclass = 0", fillcolor="#f2c09c"] ;
494 -> 496 ;
497 [label="gini = 0.0\nsamples = 1\nvalue = [0, 1]\nclass = 1", fillcolor="#399de5"] ;
496 -> 497 ;
498 [label="Tenure <= 3.5\ngini = 0.32\nsamples = 3\nvalue = [4, 1]\nclass = 0", fillcolor="#eca06a"] ;
496 -> 498 ;
499 [label="EstimatedSalary <= 106696.89\ngini = 0.44\nsamples = 2\nvalue = [2, 1]\nclass = 0", fillcolor="#f2c09c"] ;
498 -> 499 ;
500 [label="gini = 0.0\nsamples = 1\nvalue = [2, 0]\nclass = 0", fillcolor="#e58139"] ;
499 -> 500 ;
501 [label="gini = 0.0\nsamples = 1\nvalue = [0, 1]\nclass = 1", fillcolor="#399de5"] ;
499 -> 501 ;
502 [label="gini = 0.0\nsamples = 1\nvalue = [2, 0]\nclass = 0", fillcolor="#e58139"] ;
498 -> 502 ;
503 [label="Age <= 62.0\ngini = 0.38\nsamples = 8\nvalue = [2, 6]\nclass = 1", fillcolor="#7bbeee"] ;
479 -> 503 ;
504 [label="Tenure <= 5.5\ngini = 0.44\nsamples = 6\nvalue = [2, 4]\nclass = 1", fillcolor="#9ccef2"] ;
503 -> 504 ;
505 [label="CreditScore <= 671.5\ngini = 0.5\nsamples = 4\nvalue = [2, 2]\nclass = 0", fillcolor="#ffffff"] ;
504 -> 505 ;
506 [label="gini = 0.0\nsamples = 2\nvalue = [0, 2]\nclass = 1", fillcolor="#399de5"] ;
505 -> 506 ;
507 [label="gini = 0.0\nsamples = 2\nvalue = [2, 0]\nclass = 0", fillcolor="#e58139"] ;
505 -> 507 ;
508 [label="gini = 0.0\nsamples = 2\nvalue = [0, 2]\nclass = 1", fillcolor="#399de5"] ;
504 -> 508 ;
509 [label="gini = 0.0\nsamples = 2\nvalue = [0, 2]\nclass = 1", fillcolor="#399de5"] ;
503 -> 509 ;
510 [label="Age <= 46.0\ngini = 0.38\nsamples = 5\nvalue = [2, 6]\nclass = 1", fillcolor="#7bbeee"] ;
456 -> 510 ;
511 [label="gini = 0.0\nsamples = 2\nvalue = [2, 0]\nclass = 0", fillcolor="#e58139"] ;
510 -> 511 ;
512 [label="gini = 0.0\nsamples = 3\nvalue = [0, 6]\nclass = 1", fillcolor="#399de5"] ;
510 -> 512 ;
513 [label="Age <= 41.5\ngini = 0.35\nsamples = 46\nvalue = [56, 16]\nclass = 0", fillcolor="#eca572"] ;
3 -> 513 ;
514 [label="CreditScore <= 677.5\ngini = 0.04\nsamples = 30\nvalue = [49, 1]\nclass = 0", fillcolor="#e6843d"] ;
513 -> 514 ;
515 [label="gini = 0.0\nsamples = 21\nvalue = [40, 0]\nclass = 0", fillcolor="#e58139"] ;
514 -> 515 ;
516 [label="EstimatedSalary <= 117982.96\ngini = 0.18\nsamples = 9\nvalue = [9, 1]\nclass = 0", fillcolor="#e88f4f"] ;
514 -> 516 ;
517 [label="Geography_cat <= 0.5\ngini = 0.32\nsamples = 5\nvalue = [4, 1]\nclass = 0", fillcolor="#eca06a"] ;
516 -> 517 ;
518 [label="CreditScore <= 749.5\ngini = 0.44\nsamples = 3\nvalue = [2, 1]\nclass = 0", fillcolor="#f2c09c"] ;
517 -> 518 ;
519 [label="gini = 0.0\nsamples = 1\nvalue = [0, 1]\nclass = 1", fillcolor="#399de5"] ;
518 -> 519 ;
520 [label="gini = 0.0\nsamples = 2\nvalue = [2, 0]\nclass = 0", fillcolor="#e58139"] ;
518 -> 520 ;
521 [label="gini = 0.0\nsamples = 2\nvalue = [2, 0]\nclass = 0", fillcolor="#e58139"] ;
517 -> 521 ;
522 [label="gini = 0.0\nsamples = 4\nvalue = [5, 0]\nclass = 0", fillcolor="#e58139"] ;
516 -> 522 ;
523 [label="EstimatedSalary <= 110623.07\ngini = 0.43\nsamples = 16\nvalue = [7, 15]\nclass = 1", fillcolor="#95cbf1"] ;
513 -> 523 ;
524 [label="EstimatedSalary <= 15680.73\ngini = 0.5\nsamples = 9\nvalue = [7, 6]\nclass = 0", fillcolor="#fbede3"] ;
523 -> 524 ;
525 [label="gini = 0.0\nsamples = 1\nvalue = [0, 1]\nclass = 1", fillcolor="#399de5"] ;
524 -> 525 ;
526 [label="CreditScore <= 679.0\ngini = 0.49\nsamples = 8\nvalue = [7, 5]\nclass = 0", fillcolor="#f8dbc6"] ;
524 -> 526 ;
527 [label="EstimatedSalary <= 28543.96\ngini = 0.28\nsamples = 4\nvalue = [5, 1]\nclass = 0", fillcolor="#ea9a61"] ;
526 -> 527 ;
528 [label="Balance <= 108738.54\ngini = 0.44\nsamples = 2\nvalue = [2, 1]\nclass = 0", fillcolor="#f2c09c"] ;
527 -> 528 ;
529 [label="gini = 0.0\nsamples = 1\nvalue = [0, 1]\nclass = 1", fillcolor="#399de5"] ;
528 -> 529 ;
530 [label="gini = 0.0\nsamples = 1\nvalue = [2, 0]\nclass = 0", fillcolor="#e58139"] ;
528 -> 530 ;
531 [label="gini = 0.0\nsamples = 2\nvalue = [3, 0]\nclass = 0", fillcolor="#e58139"] ;
527 -> 531 ;
532 [label="Age <= 46.0\ngini = 0.44\nsamples = 4\nvalue = [2, 4]\nclass = 1", fillcolor="#9ccef2"] ;
526 -> 532 ;
533 [label="gini = 0.0\nsamples = 1\nvalue = [2, 0]\nclass = 0", fillcolor="#e58139"] ;
532 -> 533 ;
534 [label="gini = 0.0\nsamples = 3\nvalue = [0, 4]\nclass = 1", fillcolor="#399de5"] ;
532 -> 534 ;
535 [label="gini = 0.0\nsamples = 7\nvalue = [0, 9]\nclass = 1", fillcolor="#399de5"] ;
523 -> 535 ;
536 [label="NumOfProducts <= 1.5\ngini = 0.26\nsamples = 1077\nvalue = [1446, 269]\nclass = 0", fillcolor="#ea985e"] ;
2 -> 536 ;
537 [label="CreditScore <= 765.0\ngini = 0.36\nsamples = 575\nvalue = [715, 220]\nclass = 0", fillcolor="#eda876"] ;
536 -> 537 ;
538 [label="Age <= 43.5\ngini = 0.34\nsamples = 494\nvalue = [632, 175]\nclass = 0", fillcolor="#eca470"] ;
537 -> 538 ;
539 [label="Geography_cat <= 1.5\ngini = 0.26\nsamples = 344\nvalue = [475, 87]\nclass = 0", fillcolor="#ea985d"] ;
538 -> 539 ;
540 [label="Balance <= 203326.05\ngini = 0.21\nsamples = 263\nvalue = [376, 52]\nclass = 0", fillcolor="#e99254"] ;
539 -> 540 ;
541 [label="Age <= 34.5\ngini = 0.2\nsamples = 262\nvalue = [376, 49]\nclass = 0", fillcolor="#e89153"] ;
540 -> 541 ;
542 [label="EstimatedSalary <= 152853.48\ngini = 0.11\nsamples = 127\nvalue = [192, 12]\nclass = 0", fillcolor="#e78945"] ;
541 -> 542 ;
543 [label="Balance <= 153016.47\ngini = 0.05\nsamples = 98\nvalue = [148, 4]\nclass = 0", fillcolor="#e6843e"] ;
542 -> 543 ;
544 [label="Geography_cat <= 0.5\ngini = 0.03\nsamples = 89\nvalue = [133, 2]\nclass = 0", fillcolor="#e5833c"] ;
543 -> 544 ;
545 [label="EstimatedSalary <= 49591.44\ngini = 0.04\nsamples = 64\nvalue = [98, 2]\nclass = 0", fillcolor="#e6843d"] ;
544 -> 545 ;
546 [label="EstimatedSalary <= 46363.39\ngini = 0.11\nsamples = 24\nvalue = [32, 2]\nclass = 0", fillcolor="#e78945"] ;
545 -> 546 ;
547 [label="Balance <= 17273.91\ngini = 0.06\nsamples = 23\nvalue = [32, 1]\nclass = 0", fillcolor="#e6853f"] ;
546 -> 547 ;
548 [label="Age <= 29.5\ngini = 0.38\nsamples = 2\nvalue = [3, 1]\nclass = 0", fillcolor="#eeab7b"] ;
547 -> 548 ;
549 [label="gini = 0.0\nsamples = 1\nvalue = [3, 0]\nclass = 0", fillcolor="#e58139"] ;
548 -> 549 ;
550 [label="gini = 0.0\nsamples = 1\nvalue = [0, 1]\nclass = 1", fillcolor="#399de5"] ;
548 -> 550 ;
551 [label="gini = 0.0\nsamples = 21\nvalue = [29, 0]\nclass = 0", fillcolor="#e58139"] ;
547 -> 551 ;
552 [label="gini = 0.0\nsamples = 1\nvalue = [0, 1]\nclass = 1", fillcolor="#399de5"] ;
546 -> 552 ;
553 [label="gini = 0.0\nsamples = 40\nvalue = [66, 0]\nclass = 0", fillcolor="#e58139"] ;
545 -> 553 ;
554 [label="gini = 0.0\nsamples = 25\nvalue = [35, 0]\nclass = 0", fillcolor="#e58139"] ;
544 -> 554 ;
555 [label="EstimatedSalary <= 125739.53\ngini = 0.21\nsamples = 9\nvalue = [15, 2]\nclass = 0", fillcolor="#e89253"] ;
543 -> 555 ;
556 [label="Tenure <= 9.5\ngini = 0.12\nsamples = 8\nvalue = [15, 1]\nclass = 0", fillcolor="#e78946"] ;
555 -> 556 ;
557 [label="gini = 0.0\nsamples = 7\nvalue = [15, 0]\nclass = 0", fillcolor="#e58139"] ;
556 -> 557 ;
558 [label="gini = 0.0\nsamples = 1\nvalue = [0, 1]\nclass = 1", fillcolor="#399de5"] ;
556 -> 558 ;
559 [label="gini = 0.0\nsamples = 1\nvalue = [0, 1]\nclass = 1", fillcolor="#399de5"] ;
555 -> 559 ;
560 [label="HasCrCard <= 0.5\ngini = 0.26\nsamples = 29\nvalue = [44, 8]\nclass = 0", fillcolor="#ea985d"] ;
542 -> 560 ;
561 [label="Balance <= 158692.84\ngini = 0.43\nsamples = 11\nvalue = [11, 5]\nclass = 0", fillcolor="#f1ba93"] ;
560 -> 561 ;
562 [label="Tenure <= 4.5\ngini = 0.34\nsamples = 10\nvalue = [11, 3]\nclass = 0", fillcolor="#eca36f"] ;
561 -> 562 ;
563 [label="gini = 0.0\nsamples = 3\nvalue = [4, 0]\nclass = 0", fillcolor="#e58139"] ;
562 -> 563 ;
564 [label="Balance <= 106317.56\ngini = 0.42\nsamples = 7\nvalue = [7, 3]\nclass = 0", fillcolor="#f0b78e"] ;
562 -> 564 ;
565 [label="EstimatedSalary <= 179038.43\ngini = 0.24\nsamples = 5\nvalue = [6, 1]\nclass = 0", fillcolor="#e9965a"] ;
564 -> 565 ;
566 [label="gini = 0.0\nsamples = 3\nvalue = [5, 0]\nclass = 0", fillcolor="#e58139"] ;
565 -> 566 ;
567 [label="Age <= 27.5\ngini = 0.5\nsamples = 2\nvalue = [1, 1]\nclass = 0", fillcolor="#ffffff"] ;
565 -> 567 ;
568 [label="gini = 0.0\nsamples = 1\nvalue = [1, 0]\nclass = 0", fillcolor="#e58139"] ;
567 -> 568 ;
569 [label="gini = 0.0\nsamples = 1\nvalue = [0, 1]\nclass = 1", fillcolor="#399de5"] ;
567 -> 569 ;
570 [label="Geography_cat <= 0.5\ngini = 0.44\nsamples = 2\nvalue = [1, 2]\nclass = 1", fillcolor="#9ccef2"] ;
564 -> 570 ;
571 [label="gini = 0.0\nsamples = 1\nvalue = [1, 0]\nclass = 0", fillcolor="#e58139"] ;
570 -> 571 ;
572 [label="gini = 0.0\nsamples = 1\nvalue = [0, 2]\nclass = 1", fillcolor="#399de5"] ;
570 -> 572 ;
573 [label="gini = 0.0\nsamples = 1\nvalue = [0, 2]\nclass = 1", fillcolor="#399de5"] ;
561 -> 573 ;
574 [label="EstimatedSalary <= 153343.92\ngini = 0.15\nsamples = 18\nvalue = [33, 3]\nclass = 0", fillcolor="#e78c4b"] ;
560 -> 574 ;
575 [label="gini = 0.0\nsamples = 1\nvalue = [0, 2]\nclass = 1", fillcolor="#399de5"] ;
574 -> 575 ;
576 [label="Age <= 30.5\ngini = 0.06\nsamples = 17\nvalue = [33, 1]\nclass = 0", fillcolor="#e6853f"] ;
574 -> 576 ;
577 [label="gini = 0.0\nsamples = 11\nvalue = [21, 0]\nclass = 0", fillcolor="#e58139"] ;
576 -> 577 ;
578 [label="Balance <= 38000.79\ngini = 0.14\nsamples = 6\nvalue = [12, 1]\nclass = 0", fillcolor="#e78c49"] ;
576 -> 578 ;
579 [label="gini = 0.0\nsamples = 1\nvalue = [0, 1]\nclass = 1", fillcolor="#399de5"] ;
578 -> 579 ;
580 [label="gini = 0.0\nsamples = 5\nvalue = [12, 0]\nclass = 0", fillcolor="#e58139"] ;
578 -> 580 ;
581 [label="Age <= 42.5\ngini = 0.28\nsamples = 135\nvalue = [184, 37]\nclass = 0", fillcolor="#ea9a61"] ;
541 -> 581 ;
582 [label="Age <= 41.5\ngini = 0.3\nsamples = 122\nvalue = [162, 37]\nclass = 0", fillcolor="#eb9e66"] ;
581 -> 582 ;
583 [label="Age <= 36.5\ngini = 0.27\nsamples = 110\nvalue = [154, 29]\nclass = 0", fillcolor="#ea995e"] ;
582 -> 583 ;
584 [label="Tenure <= 9.0\ngini = 0.35\nsamples = 31\nvalue = [42, 12]\nclass = 0", fillcolor="#eca572"] ;
583 -> 584 ;
585 [label="EstimatedSalary <= 171204.5\ngini = 0.32\nsamples = 29\nvalue = [41, 10]\nclass = 0", fillcolor="#eba069"] ;
584 -> 585 ;
586 [label="Balance <= 156284.74\ngini = 0.28\nsamples = 27\nvalue = [40, 8]\nclass = 0", fillcolor="#ea9a61"] ;
585 -> 586 ;
587 [label="CreditScore <= 668.5\ngini = 0.17\nsamples = 24\nvalue = [40, 4]\nclass = 0", fillcolor="#e88e4d"] ;
586 -> 587 ;
588 [label="Geography_cat <= 0.5\ngini = 0.06\nsamples = 17\nvalue = [31, 1]\nclass = 0", fillcolor="#e6853f"] ;
587 -> 588 ;
589 [label="gini = 0.0\nsamples = 10\nvalue = [17, 0]\nclass = 0", fillcolor="#e58139"] ;
588 -> 589 ;
590 [label="Balance <= 49133.15\ngini = 0.12\nsamples = 7\nvalue = [14, 1]\nclass = 0", fillcolor="#e78a47"] ;
588 -> 590 ;
591 [label="CreditScore <= 625.0\ngini = 0.38\nsamples = 2\nvalue = [3, 1]\nclass = 0", fillcolor="#eeab7b"] ;
590 -> 591 ;
592 [label="gini = 0.0\nsamples = 1\nvalue = [0, 1]\nclass = 1", fillcolor="#399de5"] ;
591 -> 592 ;
593 [label="gini = 0.0\nsamples = 1\nvalue = [3, 0]\nclass = 0", fillcolor="#e58139"] ;
591 -> 593 ;
594 [label="gini = 0.0\nsamples = 5\nvalue = [11, 0]\nclass = 0", fillcolor="#e58139"] ;
590 -> 594 ;
595 [label="CreditScore <= 672.0\ngini = 0.38\nsamples = 7\nvalue = [9, 3]\nclass = 0", fillcolor="#eeab7b"] ;
587 -> 595 ;
596 [label="gini = 0.0\nsamples = 1\nvalue = [0, 3]\nclass = 1", fillcolor="#399de5"] ;
595 -> 596 ;
597 [label="gini = 0.0\nsamples = 6\nvalue = [9, 0]\nclass = 0", fillcolor="#e58139"] ;
595 -> 597 ;
598 [label="gini = 0.0\nsamples = 3\nvalue = [0, 4]\nclass = 1", fillcolor="#399de5"] ;
586 -> 598 ;
599 [label="CreditScore <= 530.5\ngini = 0.44\nsamples = 2\nvalue = [1, 2]\nclass = 1", fillcolor="#9ccef2"] ;
585 -> 599 ;
600 [label="gini = 0.0\nsamples = 1\nvalue = [0, 2]\nclass = 1", fillcolor="#399de5"] ;
599 -> 600 ;
601 [label="gini = 0.0\nsamples = 1\nvalue = [1, 0]\nclass = 0", fillcolor="#e58139"] ;
599 -> 601 ;
602 [label="CreditScore <= 558.0\ngini = 0.44\nsamples = 2\nvalue = [1, 2]\nclass = 1", fillcolor="#9ccef2"] ;
584 -> 602 ;
603 [label="gini = 0.0\nsamples = 1\nvalue = [1, 0]\nclass = 0", fillcolor="#e58139"] ;
602 -> 603 ;
604 [label="gini = 0.0\nsamples = 1\nvalue = [0, 2]\nclass = 1", fillcolor="#399de5"] ;
602 -> 604 ;
605 [label="CreditScore <= 590.0\ngini = 0.23\nsamples = 79\nvalue = [112, 17]\nclass = 0", fillcolor="#e99457"] ;
583 -> 605 ;
606 [label="EstimatedSalary <= 76775.66\ngini = 0.04\nsamples = 25\nvalue = [43, 1]\nclass = 0", fillcolor="#e6843e"] ;
605 -> 606 ;
607 [label="EstimatedSalary <= 66712.54\ngini = 0.1\nsamples = 10\nvalue = [18, 1]\nclass = 0", fillcolor="#e68844"] ;
606 -> 607 ;
608 [label="gini = 0.0\nsamples = 9\nvalue = [18, 0]\nclass = 0", fillcolor="#e58139"] ;
607 -> 608 ;
609 [label="gini = 0.0\nsamples = 1\nvalue = [0, 1]\nclass = 1", fillcolor="#399de5"] ;
607 -> 609 ;
610 [label="gini = 0.0\nsamples = 15\nvalue = [25, 0]\nclass = 0", fillcolor="#e58139"] ;
606 -> 610 ;
611 [label="Tenure <= 9.5\ngini = 0.31\nsamples = 54\nvalue = [69, 16]\nclass = 0", fillcolor="#eb9e67"] ;
605 -> 611 ;
612 [label="Balance <= 118812.43\ngini = 0.26\nsamples = 52\nvalue = [67, 12]\nclass = 0", fillcolor="#ea985c"] ;
611 -> 612 ;
613 [label="Balance <= 117028.19\ngini = 0.46\nsamples = 25\nvalue = [20, 11]\nclass = 0", fillcolor="#f3c6a6"] ;
612 -> 613 ;
614 [label="EstimatedSalary <= 114203.0\ngini = 0.38\nsamples = 23\nvalue = [20, 7]\nclass = 0", fillcolor="#eead7e"] ;
613 -> 614 ;
615 [label="gini = 0.0\nsamples = 12\nvalue = [14, 0]\nclass = 0", fillcolor="#e58139"] ;
614 -> 615 ;
616 [label="CreditScore <= 652.5\ngini = 0.5\nsamples = 11\nvalue = [6, 7]\nclass = 1", fillcolor="#e3f1fb"] ;
614 -> 616 ;
617 [label="gini = 0.0\nsamples = 3\nvalue = [0, 5]\nclass = 1", fillcolor="#399de5"] ;
616 -> 617 ;
618 [label="Age <= 37.5\ngini = 0.38\nsamples = 8\nvalue = [6, 2]\nclass = 0", fillcolor="#eeab7b"] ;
616 -> 618 ;
619 [label="gini = 0.0\nsamples = 2\nvalue = [0, 2]\nclass = 1", fillcolor="#399de5"] ;
618 -> 619 ;
620 [label="gini = 0.0\nsamples = 6\nvalue = [6, 0]\nclass = 0", fillcolor="#e58139"] ;
618 -> 620 ;
621 [label="gini = 0.0\nsamples = 2\nvalue = [0, 4]\nclass = 1", fillcolor="#399de5"] ;
613 -> 621 ;
622 [label="CreditScore <= 658.5\ngini = 0.04\nsamples = 27\nvalue = [47, 1]\nclass = 0", fillcolor="#e6843d"] ;
612 -> 622 ;
623 [label="HasCrCard <= 0.5\ngini = 0.14\nsamples = 9\nvalue = [12, 1]\nclass = 0", fillcolor="#e78c49"] ;
622 -> 623 ;
624 [label="EstimatedSalary <= 156428.25\ngini = 0.44\nsamples = 2\nvalue = [2, 1]\nclass = 0", fillcolor="#f2c09c"] ;
623 -> 624 ;
625 [label="gini = 0.0\nsamples = 1\nvalue = [0, 1]\nclass = 1", fillcolor="#399de5"] ;
624 -> 625 ;
626 [label="gini = 0.0\nsamples = 1\nvalue = [2, 0]\nclass = 0", fillcolor="#e58139"] ;
624 -> 626 ;
627 [label="gini = 0.0\nsamples = 7\nvalue = [10, 0]\nclass = 0", fillcolor="#e58139"] ;
623 -> 627 ;
628 [label="gini = 0.0\nsamples = 18\nvalue = [35, 0]\nclass = 0", fillcolor="#e58139"] ;
622 -> 628 ;
629 [label="Age <= 40.5\ngini = 0.44\nsamples = 2\nvalue = [2, 4]\nclass = 1", fillcolor="#9ccef2"] ;
611 -> 629 ;
630 [label="gini = 0.0\nsamples = 1\nvalue = [2, 0]\nclass = 0", fillcolor="#e58139"] ;
629 -> 630 ;
631 [label="gini = 0.0\nsamples = 1\nvalue = [0, 4]\nclass = 1", fillcolor="#399de5"] ;
629 -> 631 ;
632 [label="HasCrCard <= 0.5\ngini = 0.5\nsamples = 12\nvalue = [8, 8]\nclass = 0", fillcolor="#ffffff"] ;
582 -> 632 ;
633 [label="Balance <= 49918.23\ngini = 0.48\nsamples = 4\nvalue = [2, 3]\nclass = 1", fillcolor="#bddef6"] ;
632 -> 633 ;
634 [label="gini = 0.0\nsamples = 2\nvalue = [0, 3]\nclass = 1", fillcolor="#399de5"] ;
633 -> 634 ;
635 [label="gini = 0.0\nsamples = 2\nvalue = [2, 0]\nclass = 0", fillcolor="#e58139"] ;
633 -> 635 ;
636 [label="Balance <= 32370.06\ngini = 0.5\nsamples = 8\nvalue = [6, 5]\nclass = 0", fillcolor="#fbeade"] ;
632 -> 636 ;
637 [label="gini = 0.0\nsamples = 2\nvalue = [0, 2]\nclass = 1", fillcolor="#399de5"] ;
636 -> 637 ;
638 [label="EstimatedSalary <= 55199.74\ngini = 0.44\nsamples = 6\nvalue = [6, 3]\nclass = 0", fillcolor="#f2c09c"] ;
636 -> 638 ;
639 [label="Tenure <= 4.5\ngini = 0.38\nsamples = 3\nvalue = [1, 3]\nclass = 1", fillcolor="#7bbeee"] ;
638 -> 639 ;
640 [label="gini = 0.0\nsamples = 2\nvalue = [0, 3]\nclass = 1", fillcolor="#399de5"] ;
639 -> 640 ;
641 [label="gini = 0.0\nsamples = 1\nvalue = [1, 0]\nclass = 0", fillcolor="#e58139"] ;
639 -> 641 ;
642 [label="gini = 0.0\nsamples = 3\nvalue = [5, 0]\nclass = 0", fillcolor="#e58139"] ;
638 -> 642 ;
643 [label="gini = 0.0\nsamples = 13\nvalue = [22, 0]\nclass = 0", fillcolor="#e58139"] ;
581 -> 643 ;
644 [label="gini = 0.0\nsamples = 1\nvalue = [0, 3]\nclass = 1", fillcolor="#399de5"] ;
540 -> 644 ;
645 [label="EstimatedSalary <= 40476.57\ngini = 0.39\nsamples = 81\nvalue = [99, 35]\nclass = 0", fillcolor="#eeae7f"] ;
539 -> 645 ;
646 [label="Tenure <= 0.5\ngini = 0.2\nsamples = 17\nvalue = [32, 4]\nclass = 0", fillcolor="#e89152"] ;
645 -> 646 ;
647 [label="gini = 0.0\nsamples = 1\nvalue = [0, 1]\nclass = 1", fillcolor="#399de5"] ;
646 -> 647 ;
648 [label="Age <= 33.0\ngini = 0.16\nsamples = 16\nvalue = [32, 3]\nclass = 0", fillcolor="#e78d4c"] ;
646 -> 648 ;
649 [label="gini = 0.0\nsamples = 4\nvalue = [10, 0]\nclass = 0", fillcolor="#e58139"] ;
648 -> 649 ;
650 [label="CreditScore <= 439.5\ngini = 0.21\nsamples = 12\nvalue = [22, 3]\nclass = 0", fillcolor="#e99254"] ;
648 -> 650 ;
651 [label="gini = 0.0\nsamples = 1\nvalue = [0, 1]\nclass = 1", fillcolor="#399de5"] ;
650 -> 651 ;
652 [label="CreditScore <= 666.0\ngini = 0.15\nsamples = 11\nvalue = [22, 2]\nclass = 0", fillcolor="#e78c4b"] ;
650 -> 652 ;
653 [label="gini = 0.0\nsamples = 6\nvalue = [15, 0]\nclass = 0", fillcolor="#e58139"] ;
652 -> 653 ;
654 [label="CreditScore <= 705.5\ngini = 0.35\nsamples = 5\nvalue = [7, 2]\nclass = 0", fillcolor="#eca572"] ;
652 -> 654 ;
655 [label="Balance <= 126927.49\ngini = 0.44\nsamples = 3\nvalue = [1, 2]\nclass = 1", fillcolor="#9ccef2"] ;
654 -> 655 ;
656 [label="gini = 0.0\nsamples = 1\nvalue = [1, 0]\nclass = 0", fillcolor="#e58139"] ;
655 -> 656 ;
657 [label="gini = 0.0\nsamples = 2\nvalue = [0, 2]\nclass = 1", fillcolor="#399de5"] ;
655 -> 657 ;
658 [label="gini = 0.0\nsamples = 2\nvalue = [6, 0]\nclass = 0", fillcolor="#e58139"] ;
654 -> 658 ;
659 [label="EstimatedSalary <= 56610.74\ngini = 0.43\nsamples = 64\nvalue = [67, 31]\nclass = 0", fillcolor="#f1bb95"] ;
645 -> 659 ;
660 [label="Tenure <= 7.5\ngini = 0.46\nsamples = 6\nvalue = [4, 7]\nclass = 1", fillcolor="#aad5f4"] ;
659 -> 660 ;
661 [label="Age <= 37.5\ngini = 0.35\nsamples = 5\nvalue = [2, 7]\nclass = 1", fillcolor="#72b9ec"] ;
660 -> 661 ;
662 [label="Tenure <= 3.0\ngini = 0.48\nsamples = 4\nvalue = [2, 3]\nclass = 1", fillcolor="#bddef6"] ;
661 -> 662 ;
663 [label="gini = 0.0\nsamples = 1\nvalue = [1, 0]\nclass = 0", fillcolor="#e58139"] ;
662 -> 663 ;
664 [label="Age <= 35.0\ngini = 0.38\nsamples = 3\nvalue = [1, 3]\nclass = 1", fillcolor="#7bbeee"] ;
662 -> 664 ;
665 [label="gini = 0.0\nsamples = 2\nvalue = [0, 3]\nclass = 1", fillcolor="#399de5"] ;
664 -> 665 ;
666 [label="gini = 0.0\nsamples = 1\nvalue = [1, 0]\nclass = 0", fillcolor="#e58139"] ;
664 -> 666 ;
667 [label="gini = 0.0\nsamples = 1\nvalue = [0, 4]\nclass = 1", fillcolor="#399de5"] ;
661 -> 667 ;
668 [label="gini = 0.0\nsamples = 1\nvalue = [2, 0]\nclass = 0", fillcolor="#e58139"] ;
660 -> 668 ;
669 [label="Tenure <= 3.5\ngini = 0.4\nsamples = 58\nvalue = [63, 24]\nclass = 0", fillcolor="#efb184"] ;
659 -> 669 ;
670 [label="HasCrCard <= 0.5\ngini = 0.49\nsamples = 18\nvalue = [13, 10]\nclass = 0", fillcolor="#f9e2d1"] ;
669 -> 670 ;
671 [label="Tenure <= 1.5\ngini = 0.24\nsamples = 7\nvalue = [6, 1]\nclass = 0", fillcolor="#e9965a"] ;
670 -> 671 ;
672 [label="gini = 0.0\nsamples = 3\nvalue = [3, 0]\nclass = 0", fillcolor="#e58139"] ;
671 -> 672 ;
673 [label="Balance <= 118923.07\ngini = 0.38\nsamples = 4\nvalue = [3, 1]\nclass = 0", fillcolor="#eeab7b"] ;
671 -> 673 ;
674 [label="gini = 0.0\nsamples = 1\nvalue = [0, 1]\nclass = 1", fillcolor="#399de5"] ;
673 -> 674 ;
675 [label="gini = 0.0\nsamples = 3\nvalue = [3, 0]\nclass = 0", fillcolor="#e58139"] ;
673 -> 675 ;
676 [label="Age <= 31.5\ngini = 0.49\nsamples = 11\nvalue = [7, 9]\nclass = 1", fillcolor="#d3e9f9"] ;
670 -> 676 ;
677 [label="Tenure <= 2.0\ngini = 0.32\nsamples = 3\nvalue = [1, 4]\nclass = 1", fillcolor="#6ab6ec"] ;
676 -> 677 ;
678 [label="gini = 0.0\nsamples = 1\nvalue = [1, 0]\nclass = 0", fillcolor="#e58139"] ;
677 -> 678 ;
679 [label="gini = 0.0\nsamples = 2\nvalue = [0, 4]\nclass = 1", fillcolor="#399de5"] ;
677 -> 679 ;
680 [label="CreditScore <= 548.5\ngini = 0.5\nsamples = 8\nvalue = [6, 5]\nclass = 0", fillcolor="#fbeade"] ;
676 -> 680 ;
681 [label="gini = 0.0\nsamples = 2\nvalue = [0, 3]\nclass = 1", fillcolor="#399de5"] ;
680 -> 681 ;
682 [label="EstimatedSalary <= 162470.83\ngini = 0.38\nsamples = 6\nvalue = [6, 2]\nclass = 0", fillcolor="#eeab7b"] ;
680 -> 682 ;
683 [label="Balance <= 113211.24\ngini = 0.24\nsamples = 5\nvalue = [6, 1]\nclass = 0", fillcolor="#e9965a"] ;
682 -> 683 ;
684 [label="gini = 0.0\nsamples = 1\nvalue = [0, 1]\nclass = 1", fillcolor="#399de5"] ;
683 -> 684 ;
685 [label="gini = 0.0\nsamples = 4\nvalue = [6, 0]\nclass = 0", fillcolor="#e58139"] ;
683 -> 685 ;
686 [label="gini = 0.0\nsamples = 1\nvalue = [0, 1]\nclass = 1", fillcolor="#399de5"] ;
682 -> 686 ;
687 [label="EstimatedSalary <= 134033.26\ngini = 0.34\nsamples = 40\nvalue = [50, 14]\nclass = 0", fillcolor="#eca470"] ;
669 -> 687 ;
688 [label="CreditScore <= 679.5\ngini = 0.24\nsamples = 18\nvalue = [25, 4]\nclass = 0", fillcolor="#e99559"] ;
687 -> 688 ;
689 [label="CreditScore <= 511.0\ngini = 0.09\nsamples = 12\nvalue = [21, 1]\nclass = 0", fillcolor="#e68742"] ;
688 -> 689 ;
690 [label="Balance <= 120367.91\ngini = 0.44\nsamples = 2\nvalue = [2, 1]\nclass = 0", fillcolor="#f2c09c"] ;
689 -> 690 ;
691 [label="gini = 0.0\nsamples = 1\nvalue = [0, 1]\nclass = 1", fillcolor="#399de5"] ;
690 -> 691 ;
692 [label="gini = 0.0\nsamples = 1\nvalue = [2, 0]\nclass = 0", fillcolor="#e58139"] ;
690 -> 692 ;
693 [label="gini = 0.0\nsamples = 10\nvalue = [19, 0]\nclass = 0", fillcolor="#e58139"] ;
689 -> 693 ;
694 [label="Balance <= 126234.75\ngini = 0.49\nsamples = 6\nvalue = [4, 3]\nclass = 0", fillcolor="#f8e0ce"] ;
688 -> 694 ;
695 [label="Age <= 34.5\ngini = 0.38\nsamples = 4\nvalue = [1, 3]\nclass = 1", fillcolor="#7bbeee"] ;
694 -> 695 ;
696 [label="gini = 0.0\nsamples = 1\nvalue = [1, 0]\nclass = 0", fillcolor="#e58139"] ;
695 -> 696 ;
697 [label="gini = 0.0\nsamples = 3\nvalue = [0, 3]\nclass = 1", fillcolor="#399de5"] ;
695 -> 697 ;
698 [label="gini = 0.0\nsamples = 2\nvalue = [3, 0]\nclass = 0", fillcolor="#e58139"] ;
694 -> 698 ;
699 [label="CreditScore <= 754.5\ngini = 0.41\nsamples = 22\nvalue = [25, 10]\nclass = 0", fillcolor="#efb388"] ;
687 -> 699 ;
700 [label="CreditScore <= 646.0\ngini = 0.28\nsamples = 20\nvalue = [25, 5]\nclass = 0", fillcolor="#ea9a61"] ;
699 -> 700 ;
701 [label="Balance <= 135636.99\ngini = 0.38\nsamples = 13\nvalue = [15, 5]\nclass = 0", fillcolor="#eeab7b"] ;
700 -> 701 ;
702 [label="HasCrCard <= 0.5\ngini = 0.23\nsamples = 10\nvalue = [13, 2]\nclass = 0", fillcolor="#e99457"] ;
701 -> 702 ;
703 [label="Age <= 38.0\ngini = 0.28\nsamples = 4\nvalue = [5, 1]\nclass = 0", fillcolor="#ea9a61"] ;
702 -> 703 ;
704 [label="gini = 0.0\nsamples = 3\nvalue = [5, 0]\nclass = 0", fillcolor="#e58139"] ;
703 -> 704 ;
705 [label="gini = 0.0\nsamples = 1\nvalue = [0, 1]\nclass = 1", fillcolor="#399de5"] ;
703 -> 705 ;
706 [label="Age <= 23.0\ngini = 0.2\nsamples = 6\nvalue = [8, 1]\nclass = 0", fillcolor="#e89152"] ;
702 -> 706 ;
707 [label="gini = 0.0\nsamples = 1\nvalue = [0, 1]\nclass = 1", fillcolor="#399de5"] ;
706 -> 707 ;
708 [label="gini = 0.0\nsamples = 5\nvalue = [8, 0]\nclass = 0", fillcolor="#e58139"] ;
706 -> 708 ;
709 [label="Age <= 33.0\ngini = 0.48\nsamples = 3\nvalue = [2, 3]\nclass = 1", fillcolor="#bddef6"] ;
701 -> 709 ;
710 [label="gini = 0.0\nsamples = 1\nvalue = [0, 3]\nclass = 1", fillcolor="#399de5"] ;
709 -> 710 ;
711 [label="gini = 0.0\nsamples = 2\nvalue = [2, 0]\nclass = 0", fillcolor="#e58139"] ;
709 -> 711 ;
712 [label="gini = 0.0\nsamples = 7\nvalue = [10, 0]\nclass = 0", fillcolor="#e58139"] ;
700 -> 712 ;
713 [label="gini = 0.0\nsamples = 2\nvalue = [0, 5]\nclass = 1", fillcolor="#399de5"] ;
699 -> 713 ;
714 [label="Age <= 55.5\ngini = 0.46\nsamples = 150\nvalue = [157, 88]\nclass = 0", fillcolor="#f4c8a8"] ;
538 -> 714 ;
715 [label="Age <= 48.5\ngini = 0.49\nsamples = 99\nvalue = [93, 75]\nclass = 0", fillcolor="#fae7d9"] ;
714 -> 715 ;
716 [label="Tenure <= 6.5\ngini = 0.43\nsamples = 54\nvalue = [60, 28]\nclass = 0", fillcolor="#f1bc95"] ;
715 -> 716 ;
717 [label="CreditScore <= 641.5\ngini = 0.48\nsamples = 35\nvalue = [36, 23]\nclass = 0", fillcolor="#f6d2b8"] ;
716 -> 717 ;
718 [label="Tenure <= 5.5\ngini = 0.49\nsamples = 23\nvalue = [16, 22]\nclass = 1", fillcolor="#c9e4f8"] ;
717 -> 718 ;
719 [label="EstimatedSalary <= 50058.07\ngini = 0.5\nsamples = 21\nvalue = [16, 15]\nclass = 0", fillcolor="#fdf7f3"] ;
718 -> 719 ;
720 [label="gini = 0.0\nsamples = 4\nvalue = [0, 6]\nclass = 1", fillcolor="#399de5"] ;
719 -> 720 ;
721 [label="EstimatedSalary <= 95528.21\ngini = 0.46\nsamples = 17\nvalue = [16, 9]\nclass = 0", fillcolor="#f4c8a8"] ;
719 -> 721 ;
722 [label="gini = 0.0\nsamples = 7\nvalue = [10, 0]\nclass = 0", fillcolor="#e58139"] ;
721 -> 722 ;
723 [label="HasCrCard <= 0.5\ngini = 0.48\nsamples = 10\nvalue = [6, 9]\nclass = 1", fillcolor="#bddef6"] ;
721 -> 723 ;
724 [label="gini = 0.0\nsamples = 2\nvalue = [0, 3]\nclass = 1", fillcolor="#399de5"] ;
723 -> 724 ;
725 [label="Balance <= 157776.02\ngini = 0.5\nsamples = 8\nvalue = [6, 6]\nclass = 0", fillcolor="#ffffff"] ;
723 -> 725 ;
726 [label="Age <= 44.5\ngini = 0.48\nsamples = 7\nvalue = [6, 4]\nclass = 0", fillcolor="#f6d5bd"] ;
725 -> 726 ;
727 [label="gini = 0.0\nsamples = 2\nvalue = [3, 0]\nclass = 0", fillcolor="#e58139"] ;
726 -> 727 ;
728 [label="Tenure <= 3.5\ngini = 0.49\nsamples = 5\nvalue = [3, 4]\nclass = 1", fillcolor="#cee6f8"] ;
726 -> 728 ;
729 [label="EstimatedSalary <= 137265.0\ngini = 0.44\nsamples = 4\nvalue = [2, 4]\nclass = 1", fillcolor="#9ccef2"] ;
728 -> 729 ;
730 [label="gini = 0.0\nsamples = 2\nvalue = [0, 3]\nclass = 1", fillcolor="#399de5"] ;
729 -> 730 ;
731 [label="Age <= 45.5\ngini = 0.44\nsamples = 2\nvalue = [2, 1]\nclass = 0", fillcolor="#f2c09c"] ;
729 -> 731 ;
732 [label="gini = 0.0\nsamples = 1\nvalue = [0, 1]\nclass = 1", fillcolor="#399de5"] ;
731 -> 732 ;
733 [label="gini = 0.0\nsamples = 1\nvalue = [2, 0]\nclass = 0", fillcolor="#e58139"] ;
731 -> 733 ;
734 [label="gini = 0.0\nsamples = 1\nvalue = [1, 0]\nclass = 0", fillcolor="#e58139"] ;
728 -> 734 ;
735 [label="gini = 0.0\nsamples = 1\nvalue = [0, 2]\nclass = 1", fillcolor="#399de5"] ;
725 -> 735 ;
736 [label="gini = 0.0\nsamples = 2\nvalue = [0, 7]\nclass = 1", fillcolor="#399de5"] ;
718 -> 736 ;
737 [label="EstimatedSalary <= 41490.58\ngini = 0.09\nsamples = 12\nvalue = [20, 1]\nclass = 0", fillcolor="#e68743"] ;
717 -> 737 ;
738 [label="CreditScore <= 696.5\ngini = 0.44\nsamples = 2\nvalue = [2, 1]\nclass = 0", fillcolor="#f2c09c"] ;
737 -> 738 ;
739 [label="gini = 0.0\nsamples = 1\nvalue = [2, 0]\nclass = 0", fillcolor="#e58139"] ;
738 -> 739 ;
740 [label="gini = 0.0\nsamples = 1\nvalue = [0, 1]\nclass = 1", fillcolor="#399de5"] ;
738 -> 740 ;
741 [label="gini = 0.0\nsamples = 10\nvalue = [18, 0]\nclass = 0", fillcolor="#e58139"] ;
737 -> 741 ;
742 [label="Geography_cat <= 1.5\ngini = 0.29\nsamples = 19\nvalue = [24, 5]\nclass = 0", fillcolor="#ea9b62"] ;
716 -> 742 ;
743 [label="Balance <= 141424.46\ngini = 0.09\nsamples = 14\nvalue = [20, 1]\nclass = 0", fillcolor="#e68743"] ;
742 -> 743 ;
744 [label="gini = 0.0\nsamples = 9\nvalue = [15, 0]\nclass = 0", fillcolor="#e58139"] ;
743 -> 744 ;
745 [label="Balance <= 144461.48\ngini = 0.28\nsamples = 5\nvalue = [5, 1]\nclass = 0", fillcolor="#ea9a61"] ;
743 -> 745 ;
746 [label="gini = 0.0\nsamples = 1\nvalue = [0, 1]\nclass = 1", fillcolor="#399de5"] ;
745 -> 746 ;
747 [label="gini = 0.0\nsamples = 4\nvalue = [5, 0]\nclass = 0", fillcolor="#e58139"] ;
745 -> 747 ;
748 [label="Tenure <= 8.5\ngini = 0.5\nsamples = 5\nvalue = [4, 4]\nclass = 0", fillcolor="#ffffff"] ;
742 -> 748 ;
749 [label="gini = 0.0\nsamples = 2\nvalue = [3, 0]\nclass = 0", fillcolor="#e58139"] ;
748 -> 749 ;
750 [label="CreditScore <= 668.0\ngini = 0.32\nsamples = 3\nvalue = [1, 4]\nclass = 1", fillcolor="#6ab6ec"] ;
748 -> 750 ;
751 [label="gini = 0.0\nsamples = 1\nvalue = [0, 2]\nclass = 1", fillcolor="#399de5"] ;
750 -> 751 ;
752 [label="EstimatedSalary <= 100800.99\ngini = 0.44\nsamples = 2\nvalue = [1, 2]\nclass = 1", fillcolor="#9ccef2"] ;
750 -> 752 ;
753 [label="gini = 0.0\nsamples = 1\nvalue = [0, 2]\nclass = 1", fillcolor="#399de5"] ;
752 -> 753 ;
754 [label="gini = 0.0\nsamples = 1\nvalue = [1, 0]\nclass = 0", fillcolor="#e58139"] ;
752 -> 754 ;
755 [label="Age <= 52.5\ngini = 0.48\nsamples = 45\nvalue = [33, 47]\nclass = 1", fillcolor="#c4e2f7"] ;
715 -> 755 ;
756 [label="Balance <= 117955.25\ngini = 0.36\nsamples = 22\nvalue = [10, 33]\nclass = 1", fillcolor="#75bbed"] ;
755 -> 756 ;
757 [label="Age <= 50.5\ngini = 0.13\nsamples = 13\nvalue = [2, 27]\nclass = 1", fillcolor="#48a4e7"] ;
756 -> 757 ;
758 [label="HasCrCard <= 0.5\ngini = 0.28\nsamples = 6\nvalue = [2, 10]\nclass = 1", fillcolor="#61b1ea"] ;
757 -> 758 ;
759 [label="gini = 0.0\nsamples = 1\nvalue = [0, 2]\nclass = 1", fillcolor="#399de5"] ;
758 -> 759 ;
760 [label="CreditScore <= 557.5\ngini = 0.32\nsamples = 5\nvalue = [2, 8]\nclass = 1", fillcolor="#6ab6ec"] ;
758 -> 760 ;
761 [label="gini = 0.0\nsamples = 1\nvalue = [0, 4]\nclass = 1", fillcolor="#399de5"] ;
760 -> 761 ;
762 [label="CreditScore <= 661.5\ngini = 0.44\nsamples = 4\nvalue = [2, 4]\nclass = 1", fillcolor="#9ccef2"] ;
760 -> 762 ;
763 [label="gini = 0.0\nsamples = 2\nvalue = [2, 0]\nclass = 0", fillcolor="#e58139"] ;
762 -> 763 ;
764 [label="gini = 0.0\nsamples = 2\nvalue = [0, 4]\nclass = 1", fillcolor="#399de5"] ;
762 -> 764 ;
765 [label="gini = 0.0\nsamples = 7\nvalue = [0, 17]\nclass = 1", fillcolor="#399de5"] ;
757 -> 765 ;
766 [label="HasCrCard <= 0.5\ngini = 0.49\nsamples = 9\nvalue = [8, 6]\nclass = 0", fillcolor="#f8e0ce"] ;
756 -> 766 ;
767 [label="CreditScore <= 649.0\ngini = 0.38\nsamples = 3\nvalue = [3, 1]\nclass = 0", fillcolor="#eeab7b"] ;
766 -> 767 ;
768 [label="EstimatedSalary <= 101580.09\ngini = 0.5\nsamples = 2\nvalue = [1, 1]\nclass = 0", fillcolor="#ffffff"] ;
767 -> 768 ;
769 [label="gini = 0.0\nsamples = 1\nvalue = [1, 0]\nclass = 0", fillcolor="#e58139"] ;
768 -> 769 ;
770 [label="gini = 0.0\nsamples = 1\nvalue = [0, 1]\nclass = 1", fillcolor="#399de5"] ;
768 -> 770 ;
771 [label="gini = 0.0\nsamples = 1\nvalue = [2, 0]\nclass = 0", fillcolor="#e58139"] ;
767 -> 771 ;
772 [label="Age <= 50.5\ngini = 0.5\nsamples = 6\nvalue = [5, 5]\nclass = 0", fillcolor="#ffffff"] ;
766 -> 772 ;
773 [label="gini = 0.0\nsamples = 3\nvalue = [5, 0]\nclass = 0", fillcolor="#e58139"] ;
772 -> 773 ;
774 [label="gini = 0.0\nsamples = 3\nvalue = [0, 5]\nclass = 1", fillcolor="#399de5"] ;
772 -> 774 ;
775 [label="Geography_cat <= 1.5\ngini = 0.47\nsamples = 23\nvalue = [23, 14]\nclass = 0", fillcolor="#f5ceb2"] ;
755 -> 775 ;
776 [label="Balance <= 117569.11\ngini = 0.48\nsamples = 19\nvalue = [18, 12]\nclass = 0", fillcolor="#f6d5bd"] ;
775 -> 776 ;
777 [label="Age <= 54.5\ngini = 0.2\nsamples = 12\nvalue = [16, 2]\nclass = 0", fillcolor="#e89152"] ;
776 -> 777 ;
778 [label="gini = 0.0\nsamples = 11\nvalue = [16, 0]\nclass = 0", fillcolor="#e58139"] ;
777 -> 778 ;
779 [label="gini = 0.0\nsamples = 1\nvalue = [0, 2]\nclass = 1", fillcolor="#399de5"] ;
777 -> 779 ;
780 [label="Age <= 54.5\ngini = 0.28\nsamples = 7\nvalue = [2, 10]\nclass = 1", fillcolor="#61b1ea"] ;
776 -> 780 ;
781 [label="gini = 0.0\nsamples = 4\nvalue = [0, 9]\nclass = 1", fillcolor="#399de5"] ;
780 -> 781 ;
782 [label="CreditScore <= 587.5\ngini = 0.44\nsamples = 3\nvalue = [2, 1]\nclass = 0", fillcolor="#f2c09c"] ;
780 -> 782 ;
783 [label="gini = 0.0\nsamples = 1\nvalue = [0, 1]\nclass = 1", fillcolor="#399de5"] ;
782 -> 783 ;
784 [label="gini = 0.0\nsamples = 2\nvalue = [2, 0]\nclass = 0", fillcolor="#e58139"] ;
782 -> 784 ;
785 [label="Balance <= 115168.62\ngini = 0.41\nsamples = 4\nvalue = [5, 2]\nclass = 0", fillcolor="#efb388"] ;
775 -> 785 ;
786 [label="EstimatedSalary <= 175838.88\ngini = 0.5\nsamples = 3\nvalue = [2, 2]\nclass = 0", fillcolor="#ffffff"] ;
785 -> 786 ;
787 [label="gini = 0.0\nsamples = 2\nvalue = [0, 2]\nclass = 1", fillcolor="#399de5"] ;
786 -> 787 ;
788 [label="gini = 0.0\nsamples = 1\nvalue = [2, 0]\nclass = 0", fillcolor="#e58139"] ;
786 -> 788 ;
789 [label="gini = 0.0\nsamples = 1\nvalue = [3, 0]\nclass = 0", fillcolor="#e58139"] ;
785 -> 789 ;
790 [label="Age <= 65.5\ngini = 0.28\nsamples = 51\nvalue = [64, 13]\nclass = 0", fillcolor="#ea9b61"] ;
714 -> 790 ;
791 [label="CreditScore <= 676.0\ngini = 0.36\nsamples = 33\nvalue = [38, 12]\nclass = 0", fillcolor="#eda978"] ;
790 -> 791 ;
792 [label="Age <= 57.5\ngini = 0.44\nsamples = 25\nvalue = [25, 12]\nclass = 0", fillcolor="#f1bd98"] ;
791 -> 792 ;
793 [label="gini = 0.0\nsamples = 4\nvalue = [6, 0]\nclass = 0", fillcolor="#e58139"] ;
792 -> 793 ;
794 [label="Age <= 58.5\ngini = 0.47\nsamples = 21\nvalue = [19, 12]\nclass = 0", fillcolor="#f5d1b6"] ;
792 -> 794 ;
795 [label="CreditScore <= 623.5\ngini = 0.38\nsamples = 3\nvalue = [1, 3]\nclass = 1", fillcolor="#7bbeee"] ;
794 -> 795 ;
796 [label="gini = 0.0\nsamples = 1\nvalue = [1, 0]\nclass = 0", fillcolor="#e58139"] ;
795 -> 796 ;
797 [label="gini = 0.0\nsamples = 2\nvalue = [0, 3]\nclass = 1", fillcolor="#399de5"] ;
795 -> 797 ;
798 [label="Balance <= 67277.77\ngini = 0.44\nsamples = 18\nvalue = [18, 9]\nclass = 0", fillcolor="#f2c09c"] ;
794 -> 798 ;
799 [label="EstimatedSalary <= 35192.55\ngini = 0.44\nsamples = 5\nvalue = [2, 4]\nclass = 1", fillcolor="#9ccef2"] ;
798 -> 799 ;
800 [label="gini = 0.0\nsamples = 1\nvalue = [1, 0]\nclass = 0", fillcolor="#e58139"] ;
799 -> 800 ;
801 [label="CreditScore <= 586.0\ngini = 0.32\nsamples = 4\nvalue = [1, 4]\nclass = 1", fillcolor="#6ab6ec"] ;
799 -> 801 ;
802 [label="gini = 0.0\nsamples = 2\nvalue = [0, 3]\nclass = 1", fillcolor="#399de5"] ;
801 -> 802 ;
803 [label="CreditScore <= 629.0\ngini = 0.5\nsamples = 2\nvalue = [1, 1]\nclass = 0", fillcolor="#ffffff"] ;
801 -> 803 ;
804 [label="gini = 0.0\nsamples = 1\nvalue = [1, 0]\nclass = 0", fillcolor="#e58139"] ;
803 -> 804 ;
805 [label="gini = 0.0\nsamples = 1\nvalue = [0, 1]\nclass = 1", fillcolor="#399de5"] ;
803 -> 805 ;
806 [label="Tenure <= 2.5\ngini = 0.36\nsamples = 13\nvalue = [16, 5]\nclass = 0", fillcolor="#eda877"] ;
798 -> 806 ;
807 [label="gini = 0.0\nsamples = 3\nvalue = [5, 0]\nclass = 0", fillcolor="#e58139"] ;
806 -> 807 ;
808 [label="Balance <= 122887.14\ngini = 0.43\nsamples = 10\nvalue = [11, 5]\nclass = 0", fillcolor="#f1ba93"] ;
806 -> 808 ;
809 [label="CreditScore <= 613.0\ngini = 0.3\nsamples = 5\nvalue = [9, 2]\nclass = 0", fillcolor="#eb9d65"] ;
808 -> 809 ;
810 [label="Tenure <= 4.5\ngini = 0.48\nsamples = 3\nvalue = [3, 2]\nclass = 0", fillcolor="#f6d5bd"] ;
809 -> 810 ;
811 [label="gini = 0.0\nsamples = 1\nvalue = [0, 2]\nclass = 1", fillcolor="#399de5"] ;
810 -> 811 ;
812 [label="gini = 0.0\nsamples = 2\nvalue = [3, 0]\nclass = 0", fillcolor="#e58139"] ;
810 -> 812 ;
813 [label="gini = 0.0\nsamples = 2\nvalue = [6, 0]\nclass = 0", fillcolor="#e58139"] ;
809 -> 813 ;
814 [label="Tenure <= 5.5\ngini = 0.48\nsamples = 5\nvalue = [2, 3]\nclass = 1", fillcolor="#bddef6"] ;
808 -> 814 ;
815 [label="gini = 0.0\nsamples = 2\nvalue = [0, 2]\nclass = 1", fillcolor="#399de5"] ;
814 -> 815 ;
816 [label="EstimatedSalary <= 153243.47\ngini = 0.44\nsamples = 3\nvalue = [2, 1]\nclass = 0", fillcolor="#f2c09c"] ;
814 -> 816 ;
817 [label="gini = 0.0\nsamples = 2\nvalue = [2, 0]\nclass = 0", fillcolor="#e58139"] ;
816 -> 817 ;
818 [label="gini = 0.0\nsamples = 1\nvalue = [0, 1]\nclass = 1", fillcolor="#399de5"] ;
816 -> 818 ;
819 [label="gini = 0.0\nsamples = 8\nvalue = [13, 0]\nclass = 0", fillcolor="#e58139"] ;
791 -> 819 ;
820 [label="Balance <= 134595.66\ngini = 0.07\nsamples = 18\nvalue = [26, 1]\nclass = 0", fillcolor="#e68641"] ;
790 -> 820 ;
821 [label="gini = 0.0\nsamples = 15\nvalue = [21, 0]\nclass = 0", fillcolor="#e58139"] ;
820 -> 821 ;
822 [label="Geography_cat <= 1.5\ngini = 0.28\nsamples = 3\nvalue = [5, 1]\nclass = 0", fillcolor="#ea9a61"] ;
820 -> 822 ;
823 [label="gini = 0.0\nsamples = 2\nvalue = [5, 0]\nclass = 0", fillcolor="#e58139"] ;
822 -> 823 ;
824 [label="gini = 0.0\nsamples = 1\nvalue = [0, 1]\nclass = 1", fillcolor="#399de5"] ;
822 -> 824 ;
825 [label="Geography_cat <= 1.5\ngini = 0.46\nsamples = 81\nvalue = [83, 45]\nclass = 0", fillcolor="#f3c5a4"] ;
537 -> 825 ;
826 [label="EstimatedSalary <= 74382.41\ngini = 0.35\nsamples = 57\nvalue = [70, 20]\nclass = 0", fillcolor="#eca572"] ;
825 -> 826 ;
827 [label="Age <= 45.5\ngini = 0.49\nsamples = 25\nvalue = [25, 18]\nclass = 0", fillcolor="#f8dcc8"] ;
826 -> 827 ;
828 [label="Balance <= 169827.33\ngini = 0.36\nsamples = 16\nvalue = [20, 6]\nclass = 0", fillcolor="#eda774"] ;
827 -> 828 ;
829 [label="CreditScore <= 768.5\ngini = 0.09\nsamples = 15\nvalue = [20, 1]\nclass = 0", fillcolor="#e68743"] ;
828 -> 829 ;
830 [label="HasCrCard <= 0.5\ngini = 0.5\nsamples = 2\nvalue = [1, 1]\nclass = 0", fillcolor="#ffffff"] ;
829 -> 830 ;
831 [label="gini = 0.0\nsamples = 1\nvalue = [1, 0]\nclass = 0", fillcolor="#e58139"] ;
830 -> 831 ;
832 [label="gini = 0.0\nsamples = 1\nvalue = [0, 1]\nclass = 1", fillcolor="#399de5"] ;
830 -> 832 ;
833 [label="gini = 0.0\nsamples = 13\nvalue = [19, 0]\nclass = 0", fillcolor="#e58139"] ;
829 -> 833 ;
834 [label="gini = 0.0\nsamples = 1\nvalue = [0, 5]\nclass = 1", fillcolor="#399de5"] ;
828 -> 834 ;
835 [label="HasCrCard <= 0.5\ngini = 0.42\nsamples = 9\nvalue = [5, 12]\nclass = 1", fillcolor="#8bc6f0"] ;
827 -> 835 ;
836 [label="EstimatedSalary <= 38785.46\ngini = 0.44\nsamples = 2\nvalue = [1, 2]\nclass = 1", fillcolor="#9ccef2"] ;
835 -> 836 ;
837 [label="gini = 0.0\nsamples = 1\nvalue = [0, 2]\nclass = 1", fillcolor="#399de5"] ;
836 -> 837 ;
838 [label="gini = 0.0\nsamples = 1\nvalue = [1, 0]\nclass = 0", fillcolor="#e58139"] ;
836 -> 838 ;
839 [label="EstimatedSalary <= 4730.01\ngini = 0.41\nsamples = 7\nvalue = [4, 10]\nclass = 1", fillcolor="#88c4ef"] ;
835 -> 839 ;
840 [label="gini = 0.0\nsamples = 1\nvalue = [2, 0]\nclass = 0", fillcolor="#e58139"] ;
839 -> 840 ;
841 [label="EstimatedSalary <= 40104.94\ngini = 0.28\nsamples = 6\nvalue = [2, 10]\nclass = 1", fillcolor="#61b1ea"] ;
839 -> 841 ;
842 [label="gini = 0.0\nsamples = 4\nvalue = [0, 9]\nclass = 1", fillcolor="#399de5"] ;
841 -> 842 ;
843 [label="Tenure <= 5.5\ngini = 0.44\nsamples = 2\nvalue = [2, 1]\nclass = 0", fillcolor="#f2c09c"] ;
841 -> 843 ;
844 [label="gini = 0.0\nsamples = 1\nvalue = [0, 1]\nclass = 1", fillcolor="#399de5"] ;
843 -> 844 ;
845 [label="gini = 0.0\nsamples = 1\nvalue = [2, 0]\nclass = 0", fillcolor="#e58139"] ;
843 -> 845 ;
846 [label="Age <= 40.0\ngini = 0.08\nsamples = 32\nvalue = [45, 2]\nclass = 0", fillcolor="#e68742"] ;
826 -> 846 ;
847 [label="gini = 0.0\nsamples = 18\nvalue = [28, 0]\nclass = 0", fillcolor="#e58139"] ;
846 -> 847 ;
848 [label="Balance <= 85241.82\ngini = 0.19\nsamples = 14\nvalue = [17, 2]\nclass = 0", fillcolor="#e89050"] ;
846 -> 848 ;
849 [label="EstimatedSalary <= 153438.91\ngini = 0.44\nsamples = 3\nvalue = [1, 2]\nclass = 1", fillcolor="#9ccef2"] ;
848 -> 849 ;
850 [label="gini = 0.0\nsamples = 1\nvalue = [0, 1]\nclass = 1", fillcolor="#399de5"] ;
849 -> 850 ;
851 [label="CreditScore <= 802.0\ngini = 0.5\nsamples = 2\nvalue = [1, 1]\nclass = 0", fillcolor="#ffffff"] ;
849 -> 851 ;
852 [label="gini = 0.0\nsamples = 1\nvalue = [1, 0]\nclass = 0", fillcolor="#e58139"] ;
851 -> 852 ;
853 [label="gini = 0.0\nsamples = 1\nvalue = [0, 1]\nclass = 1", fillcolor="#399de5"] ;
851 -> 853 ;
854 [label="gini = 0.0\nsamples = 11\nvalue = [16, 0]\nclass = 0", fillcolor="#e58139"] ;
848 -> 854 ;
855 [label="Age <= 36.5\ngini = 0.45\nsamples = 24\nvalue = [13, 25]\nclass = 1", fillcolor="#a0d0f3"] ;
825 -> 855 ;
856 [label="Tenure <= 6.0\ngini = 0.43\nsamples = 10\nvalue = [9, 4]\nclass = 0", fillcolor="#f1b991"] ;
855 -> 856 ;
857 [label="gini = 0.0\nsamples = 7\nvalue = [7, 0]\nclass = 0", fillcolor="#e58139"] ;
856 -> 857 ;
858 [label="Age <= 34.5\ngini = 0.44\nsamples = 3\nvalue = [2, 4]\nclass = 1", fillcolor="#9ccef2"] ;
856 -> 858 ;
859 [label="gini = 0.0\nsamples = 2\nvalue = [0, 4]\nclass = 1", fillcolor="#399de5"] ;
858 -> 859 ;
860 [label="gini = 0.0\nsamples = 1\nvalue = [2, 0]\nclass = 0", fillcolor="#e58139"] ;
858 -> 860 ;
861 [label="Balance <= 81840.34\ngini = 0.27\nsamples = 14\nvalue = [4, 21]\nclass = 1", fillcolor="#5fb0ea"] ;
855 -> 861 ;
862 [label="gini = 0.0\nsamples = 1\nvalue = [1, 0]\nclass = 0", fillcolor="#e58139"] ;
861 -> 862 ;
863 [label="EstimatedSalary <= 3320.55\ngini = 0.22\nsamples = 13\nvalue = [3, 21]\nclass = 1", fillcolor="#55abe9"] ;
861 -> 863 ;
864 [label="gini = 0.0\nsamples = 1\nvalue = [2, 0]\nclass = 0", fillcolor="#e58139"] ;
863 -> 864 ;
865 [label="CreditScore <= 845.0\ngini = 0.09\nsamples = 12\nvalue = [1, 21]\nclass = 1", fillcolor="#42a2e6"] ;
863 -> 865 ;
866 [label="gini = 0.0\nsamples = 9\nvalue = [0, 19]\nclass = 1", fillcolor="#399de5"] ;
865 -> 866 ;
867 [label="Balance <= 127932.05\ngini = 0.44\nsamples = 3\nvalue = [1, 2]\nclass = 1", fillcolor="#9ccef2"] ;
865 -> 867 ;
868 [label="gini = 0.0\nsamples = 2\nvalue = [0, 2]\nclass = 1", fillcolor="#399de5"] ;
867 -> 868 ;
869 [label="gini = 0.0\nsamples = 1\nvalue = [1, 0]\nclass = 0", fillcolor="#e58139"] ;
867 -> 869 ;
870 [label="Tenure <= 7.5\ngini = 0.12\nsamples = 502\nvalue = [731, 49]\nclass = 0", fillcolor="#e78946"] ;
536 -> 870 ;
871 [label="CreditScore <= 490.5\ngini = 0.1\nsamples = 388\nvalue = [577, 33]\nclass = 0", fillcolor="#e68844"] ;
870 -> 871 ;
872 [label="EstimatedSalary <= 166687.7\ngini = 0.38\nsamples = 16\nvalue = [15, 5]\nclass = 0", fillcolor="#eeab7b"] ;
871 -> 872 ;
873 [label="EstimatedSalary <= 52737.66\ngini = 0.14\nsamples = 11\nvalue = [12, 1]\nclass = 0", fillcolor="#e78c49"] ;
872 -> 873 ;
874 [label="Age <= 40.5\ngini = 0.38\nsamples = 4\nvalue = [3, 1]\nclass = 0", fillcolor="#eeab7b"] ;
873 -> 874 ;
875 [label="gini = 0.0\nsamples = 3\nvalue = [3, 0]\nclass = 0", fillcolor="#e58139"] ;
874 -> 875 ;
876 [label="gini = 0.0\nsamples = 1\nvalue = [0, 1]\nclass = 1", fillcolor="#399de5"] ;
874 -> 876 ;
877 [label="gini = 0.0\nsamples = 7\nvalue = [9, 0]\nclass = 0", fillcolor="#e58139"] ;
873 -> 877 ;
878 [label="Age <= 40.5\ngini = 0.49\nsamples = 5\nvalue = [3, 4]\nclass = 1", fillcolor="#cee6f8"] ;
872 -> 878 ;
879 [label="gini = 0.0\nsamples = 2\nvalue = [3, 0]\nclass = 0", fillcolor="#e58139"] ;
878 -> 879 ;
880 [label="gini = 0.0\nsamples = 3\nvalue = [0, 4]\nclass = 1", fillcolor="#399de5"] ;
878 -> 880 ;
881 [label="Age <= 39.5\ngini = 0.09\nsamples = 372\nvalue = [562, 28]\nclass = 0", fillcolor="#e68743"] ;
871 -> 881 ;
882 [label="HasCrCard <= 0.5\ngini = 0.04\nsamples = 237\nvalue = [364, 8]\nclass = 0", fillcolor="#e6843d"] ;
881 -> 882 ;
883 [label="Balance <= 129333.68\ngini = 0.07\nsamples = 68\nvalue = [109, 4]\nclass = 0", fillcolor="#e68640"] ;
882 -> 883 ;
884 [label="EstimatedSalary <= 102425.05\ngini = 0.06\nsamples = 61\nvalue = [99, 3]\nclass = 0", fillcolor="#e6853f"] ;
883 -> 884 ;
885 [label="EstimatedSalary <= 98627.71\ngini = 0.11\nsamples = 27\nvalue = [46, 3]\nclass = 0", fillcolor="#e78946"] ;
884 -> 885 ;
886 [label="gini = 0.0\nsamples = 26\nvalue = [46, 0]\nclass = 0", fillcolor="#e58139"] ;
